{
  "config": {
    "simplex_resolution": 5,
    "n_mixing_points": 21,
    "n_pairs_per_model": 2000,
    "diversity_weights": [
      0.0,
      0.05,
      0.1,
      0.15,
      0.2,
      0.25,
      0.3,
      0.35,
      0.4,
      0.45,
      0.5,
      0.55,
      0.6,
      0.65,
      0.7,
      0.75,
      0.8,
      0.85,
      0.9,
      0.95,
      1.0
    ],
    "top_k": 10
  },
  "amazon-kindle": {
    "weight_vectors": {
      "per_stakeholder": {
        "diversity": [
          -3.899444341659546,
          -1.3515141010284424,
          -0.26165276765823364,
          0.24246355891227722,
          1.050958514213562,
          1.4012033939361572,
          1.5043684244155884,
          1.6346046924591064,
          1.5241668224334717,
          0.35574910044670105,
          0.9543800950050354,
          0.6947498917579651,
          0.06561298668384552,
          0.45812124013900757,
          0.4977375864982605,
          0.3542124927043915,
          0.06874295324087143,
          0.36565929651260376,
          3.065170732876491e-30,
          0.4526772201061249,
          -0.03409150242805481,
          -0.07578340917825699,
          -0.04298211634159088,
          0.1970721334218979,
          3.065170732876491e-30,
          -0.15016601979732513,
          0.15071019530296326,
          -0.0043164086528122425,
          0.05484989285469055,
          -0.012855784967541695,
          -0.014768935739994049,
          -0.16266028583049774
        ],
        "indie_author": [
          -2.208068609237671,
          -2.14858078956604,
          -2.234044075012207,
          1.1811351776123047,
          0.7343220114707947,
          1.1586740016937256,
          0.6780651807785034,
          0.9525474309921265,
          0.9913095831871033,
          0.2870296835899353,
          1.0843384265899658,
          0.4999207556247711,
          0.08587402105331421,
          0.45327556133270264,
          0.4304783344268799,
          0.2817770838737488,
          0.05986834317445755,
          0.4172896444797516,
          3.065170732876491e-30,
          0.3859700560569763,
          0.08225273340940475,
          0.04704327881336212,
          0.07148684561252594,
          0.2378620207309723,
          3.065170732876491e-30,
          0.6842881441116333,
          -0.6842346787452698,
          -0.10097137838602066,
          0.025708844885230064,
          0.11538245528936386,
          -0.16408972442150116,
          -0.29114973545074463
        ],
        "premium_seller": [
          0.060556262731552124,
          -0.17029045522212982,
          -0.1224714145064354,
          0.010402554646134377,
          -0.26919907331466675,
          0.026693064719438553,
          0.17762082815170288,
          0.1806129366159439,
          0.6241660714149475,
          -0.27971217036247253,
          0.06909304112195969,
          0.26833048462867737,
          -0.02842693030834198,
          -0.15310823917388916,
          0.14829429984092712,
          -0.18802843987941742,
          -0.0312659926712513,
          0.26999372243881226,
          3.065170732876491e-30,
          0.042703982442617416,
          -3.8825771808624268,
          -0.6773475408554077,
          2.109243631362915,
          1.003861904144287,
          3.065170732876491e-30,
          0.23098714649677277,
          -0.23069410026073456,
          -0.12930314242839813,
          -1.4062376022338867,
          1.556794285774231,
          -0.8726808428764343,
          1.4019584655761719
        ],
        "publisher": [
          3.838489294052124,
          0.4928287863731384,
          0.8361566662788391,
          -0.2477293759584427,
          -0.5729184746742249,
          -1.3461358547210693,
          -1.0284661054611206,
          -1.312890648841858,
          -0.826334536075592,
          -0.3670288324356079,
          -1.0715428590774536,
          -0.429460346698761,
          -0.1200902909040451,
          -0.40485823154449463,
          -0.2911428213119507,
          -0.2841276526451111,
          -0.11979225277900696,
          -0.32736271619796753,
          3.065170732876491e-30,
          -0.09918231517076492,
          0.11672060191631317,
          0.10825029015541077,
          0.09976008534431458,
          0.05781370773911476,
          3.065170732876491e-30,
          -0.6797370314598083,
          0.6798080205917358,
          0.00711711123585701,
          -0.04391128569841385,
          0.054954495280981064,
          0.14704878628253937,
          0.23396039009094238
        ],
        "reader": [
          -0.26690545678138733,
          1.3780258893966675,
          -0.8198025822639465,
          0.5883695483207703,
          -0.7340400218963623,
          1.1638000011444092,
          -0.21068862080574036,
          0.1943598836660385,
          0.10323353111743927,
          -0.3955564498901367,
          0.33693957328796387,
          0.29397085309028625,
          -0.05077540501952171,
          -0.23481427133083344,
          0.2828305661678314,
          -0.3237156569957733,
          -0.14767859876155853,
          0.10254979133605957,
          3.065170732876491e-30,
          0.0621340349316597,
          -0.2564762830734253,
          2.5314292907714844,
          4.092673301696777,
          0.007476361934095621,
          3.065170732876491e-30,
          0.19614332914352417,
          -0.1956297904253006,
          -0.04275915026664734,
          -1.965242624282837,
          2.0481255054473877,
          -0.05112389475107193,
          0.06721626222133636
        ]
      },
      "scalarized": [
        {
          "mixing": {
            "diversity": 0.0,
            "indie_author": 0.0,
            "premium_seller": 0.0,
            "publisher": 0.2,
            "reader": 0.8
          },
          "weights": [
            0.5735684633255005,
            0.9808202385902405,
            -0.40632668137550354,
            0.5981083512306213,
            -0.8525597453117371,
            0.4814760386943817,
            -0.31511735916137695,
            0.0035616338718682528,
            -0.2893778085708618,
            -0.5797609090805054,
            0.21545225381851196,
            0.28458142280578613,
            0.01091486681252718,
            -0.057448748499155045,
            0.2983447015285492,
            -0.42034247517585754,
            -0.09113198518753052,
            0.1406557857990265,
            -0.09438494592905045,
            0.12862001359462738,
            0.07726996392011642,
            1.7635928392410278,
            2.755544662475586,
            -0.0031067910604178905,
            3.065170732876491e-30,
            -0.08868656307458878,
            0.08907889574766159,
            0.16866707801818848,
            -1.1334898471832275,
            1.0267481803894043,
            0.03861267492175102,
            -0.02544739842414856
          ]
        },
        {
          "mixing": {
            "diversity": 0.0,
            "indie_author": 0.0,
            "premium_seller": 0.0,
            "publisher": 0.4,
            "reader": 0.6
          },
          "weights": [
            1.245341420173645,
            0.9536956548690796,
            -0.051078733056783676,
            0.3233056962490082,
            -0.19972355663776398,
            0.5252021551132202,
            -0.45776069164276123,
            -0.06808222830295563,
            -0.49905499815940857,
            -0.0834149718284607,
            -0.1780666559934616,
            -0.006497540045529604,
            -0.020009957253932953,
            -0.7564864158630371,
            -0.4256435036659241,
            -0.4286981225013733,
            -0.23309911787509918,
            -0.2605411410331726,
            3.065170732876491e-30,
            0.1670745462179184,
            0.10468260198831558,
            1.135542869567871,
            1.7368170022964478,
            -0.0025869403034448624,
            3.065170732876491e-30,
            0.07178264111280441,
            -0.06720380485057831,
            -0.21192070841789246,
            -0.41463854908943176,
            0.6163697242736816,
            -0.22310112416744232,
            0.04920048266649246
          ]
        },
        {
          "mixing": {
            "diversity": 0.0,
            "indie_author": 0.0,
            "premium_seller": 0.0,
            "publisher": 0.6,
            "reader": 0.4
          },
          "weights": [
            1.6613109111785889,
            0.8093904256820679,
            0.32605430483818054,
            0.0028800975997000933,
            -0.3931492567062378,
            0.13282817602157593,
            0.014161971397697926,
            -0.47400277853012085,
            -0.7114144563674927,
            -0.14268985390663147,
            0.15470486879348755,
            -0.23158469796180725,
            -0.3396679759025574,
            -0.18389886617660522,
            0.12304777652025223,
            -0.132027730345726,
            3.065170732876491e-30,
            -0.33837369084358215,
            3.065170732876491e-30,
            -0.4430171549320221,
            -0.15085922181606293,
            0.7749231457710266,
            1.1231476068496704,
            -0.10028950870037079,
            3.065170732876491e-30,
            -0.3029884994029999,
            0.3068036735057831,
            3.065170732876491e-30,
            -0.4024689793586731,
            0.4463028013706207,
            -0.05531737580895424,
            0.1975952386856079
          ]
        },
        {
          "mixing": {
            "diversity": 0.0,
            "indie_author": 0.0,
            "premium_seller": 0.0,
            "publisher": 0.8,
            "reader": 0.2
          },
          "weights": [
            2.245932102203369,
            0.5911771059036255,
            0.5082454085350037,
            3.2624229788780212e-06,
            -0.4159359335899353,
            -0.3263966739177704,
            -0.44058722257614136,
            -1.0202807188034058,
            -0.4766744375228882,
            -0.3924185335636139,
            -0.7045537233352661,
            -0.08497177809476852,
            3.065170732876491e-30,
            -0.15636679530143738,
            0.02738269604742527,
            -0.07100605219602585,
            -0.05264003574848175,
            0.11439135670661926,
            -0.24057672917842865,
            -0.3833095133304596,
            0.16749931871891022,
            0.5553537011146545,
            0.8093380331993103,
            -0.13032452762126923,
            3.065170732876491e-30,
            -0.30443236231803894,
            0.30537426471710205,
            0.10575782507658005,
            -0.26956042647361755,
            0.2172359824180603,
            0.18304279446601868,
            0.13680939376354218
          ]
        },
        {
          "mixing": {
            "diversity": 0.0,
            "indie_author": 0.0,
            "premium_seller": 0.2,
            "publisher": 0.0,
            "reader": 0.8
          },
          "weights": [
            -0.2248534858226776,
            0.7171852588653564,
            -0.8857444524765015,
            0.6724516749382019,
            -0.49318087100982666,
            1.341851830482483,
            -0.8028784394264221,
            0.6128764152526855,
            -0.19762271642684937,
            -0.6089412569999695,
            0.4574073553085327,
            0.5193151235580444,
            -0.012607592158019543,
            0.006546357646584511,
            0.39675289392471313,
            -0.2962086796760559,
            -0.13523435592651367,
            0.23239104449748993,
            3.065170732876491e-30,
            0.05432777479290962,
            -1.1043384075164795,
            1.6210107803344727,
            3.5455198287963867,
            0.5582522749900818,
            3.065170732876491e-30,
            0.07820479571819305,
            -0.07662395387887955,
            -0.0777493268251419,
            -1.783402442932129,
            1.8849241733551025,
            -0.07652109116315842,
            0.18670880794525146
          ]
        },
        {
          "mixing": {
            "diversity": 0.0,
            "indie_author": 0.0,
            "premium_seller": 0.2,
            "publisher": 0.2,
            "reader": 0.6
          },
          "weights": [
            0.6512374877929688,
            0.771655797958374,
            -0.1030084639787674,
            0.13935427367687225,
            -0.02738262340426445,
            0.2542957067489624,
            -0.5865136981010437,
            0.22056376934051514,
            -0.6795039176940918,
            -0.27498364448547363,
            -0.41874781250953674,
            0.20667743682861328,
            -0.012262972071766853,
            -0.0401589572429657,
            0.3450540602207184,
            0.09553246945142746,
            3.065170732876491e-30,
            0.17214903235435486,
            3.065170732876491e-30,
            0.16523709893226624,
            -0.3796294331550598,
            0.9861223697662354,
            2.070343255996704,
            0.28333142399787903,
            3.065170732876491e-30,
            0.2476436346769333,
            -0.24250361323356628,
            3.065170732876491e-30,
            -1.0004912614822388,
            1.0347545146942139,
            -0.3665607273578644,
            0.19020764529705048
          ]
        },
        {
          "mixing": {
            "diversity": 0.0,
            "indie_author": 0.0,
            "premium_seller": 0.2,
            "publisher": 0.4,
            "reader": 0.4
          },
          "weights": [
            1.1123793125152588,
            0.24865604937076569,
            0.0830739364027977,
            0.2382718026638031,
            -0.36129704117774963,
            0.021940728649497032,
            -0.028961360454559326,
            -0.008418398909270763,
            -0.10853829234838486,
            -0.28090551495552063,
            0.026746315881609917,
            0.18241679668426514,
            -0.018905116245150566,
            -0.41965925693511963,
            -0.21487581729888916,
            -0.053783025592565536,
            0.005634239409118891,
            -0.19492177665233612,
            -0.18899647891521454,
            0.029957056045532227,
            -0.10854517668485641,
            0.9147318005561829,
            1.4759334325790405,
            0.6044932007789612,
            3.065170732876491e-30,
            -0.10059171915054321,
            0.10186610370874405,
            0.07053928822278976,
            -0.44748228788375854,
            0.4141361713409424,
            -0.10634700953960419,
            0.1847515106201172
          ]
        },
        {
          "mixing": {
            "diversity": 0.0,
            "indie_author": 0.0,
            "premium_seller": 0.2,
            "publisher": 0.6,
            "reader": 0.2
          },
          "weights": [
            1.6659812927246094,
            0.6010032296180725,
            0.6102637052536011,
            0.01986100524663925,
            -0.15698015689849854,
            -0.3648642897605896,
            -0.15216407179832458,
            -0.6833667755126953,
            -0.27547717094421387,
            -0.25468599796295166,
            -0.2703569829463959,
            -0.23717765510082245,
            -0.06563544273376465,
            3.065170732876491e-30,
            0.12683740258216858,
            -0.002265329472720623,
            -0.26611819863319397,
            0.05591752752661705,
            3.065170732876491e-30,
            -0.1277456432580948,
            -0.4560052752494812,
            0.07241643965244293,
            0.6182501316070557,
            0.2510983347892761,
            3.065170732876491e-30,
            0.10603277385234833,
            -0.10438916087150574,
            -0.5886127352714539,
            -8.104974403977394e-05,
            0.5075743794441223,
            0.1388123482465744,
            0.4909888803958893
          ]
        },
        {
          "mixing": {
            "diversity": 0.0,
            "indie_author": 0.0,
            "premium_seller": 0.2,
            "publisher": 0.8,
            "reader": 0.0
          },
          "weights": [
            2.379808187484741,
            0.6067749857902527,
            0.6068301796913147,
            -0.11526986956596375,
            -0.3919685482978821,
            -0.3547866642475128,
            -0.6721798181533813,
            -0.6042062044143677,
            -0.727586567401886,
            -0.4184476137161255,
            -0.748242974281311,
            -0.3367244303226471,
            -0.06176295876502991,
            -0.6863324046134949,
            0.08234220743179321,
            -0.29817044734954834,
            3.065170732876491e-30,
            3.065170732876491e-30,
            -0.12051454931497574,
            -0.39140185713768005,
            -0.519733726978302,
            -0.18298554420471191,
            0.35198983550071716,
            0.07982341200113297,
            3.065170732876491e-30,
            -0.47870808839797974,
            0.47873643040657043,
            0.032886628061532974,
            -0.10826879739761353,
            0.11981679499149323,
            0.08341057598590851,
            0.4134354889392853
          ]
        },
        {
          "mixing": {
            "diversity": 0.0,
            "indie_author": 0.0,
            "premium_seller": 0.4,
            "publisher": 0.0,
            "reader": 0.6
          },
          "weights": [
            -0.15533854067325592,
            0.5289292335510254,
            -0.5464326739311218,
            0.3538946509361267,
            -0.9269933700561523,
            0.679433286190033,
            -0.23021800816059113,
            0.5885720252990723,
            0.5030857920646667,
            -0.11497674137353897,
            0.1127023994922638,
            0.2926245927810669,
            -0.08963087946176529,
            -0.3400360643863678,
            0.6097774505615234,
            -0.15290972590446472,
            -0.16387926042079926,
            0.31448009610176086,
            -0.03348546475172043,
            0.3186860978603363,
            -1.4464861154556274,
            1.2089998722076416,
            3.0726165771484375,
            0.6416157484054565,
            3.065170732876491e-30,
            0.47279396653175354,
            -0.4717491567134857,
            -0.13108088076114655,
            -1.4110661745071411,
            1.5448836088180542,
            -0.08527395129203796,
            0.7917125821113586
          ]
        },
        {
          "mixing": {
            "diversity": 0.0,
            "indie_author": 0.0,
            "premium_seller": 0.4,
            "publisher": 0.2,
            "reader": 0.4
          },
          "weights": [
            0.5417754650115967,
            0.28515827655792236,
            -0.03395586460828781,
            0.47336021065711975,
            -0.29647913575172424,
            -0.2881772220134735,
            0.006706514395773411,
            -0.12079151719808578,
            0.5438917875289917,
            0.040233563631772995,
            0.026906395331025124,
            -0.18904609978199005,
            -0.1858098953962326,
            -0.5445220470428467,
            0.4635510742664337,
            -0.4041338562965393,
            3.065170732876491e-30,
            0.18537019193172455,
            3.065170732876491e-30,
            -0.03121633268892765,
            -0.8352720737457275,
            0.7068885564804077,
            1.3621171712875366,
            -0.004843440838158131,
            3.065170732876491e-30,
            -0.1364508718252182,
            0.14026238024234772,
            3.065170732876491e-30,
            -0.7330850958824158,
            0.7728076577186584,
            -0.002654310781508684,
            0.3982080817222595
          ]
        },
        {
          "mixing": {
            "diversity": 0.0,
            "indie_author": 0.0,
            "premium_seller": 0.4,
            "publisher": 0.4,
            "reader": 0.2
          },
          "weights": [
            1.0775750875473022,
            0.3647272288799286,
            0.1898571103811264,
            0.03325994312763214,
            -0.17689314484596252,
            -0.30093881487846375,
            -0.2759217321872711,
            0.1393912434577942,
            0.07958922535181046,
            -0.7088512778282166,
            -0.32579776644706726,
            0.1058109775185585,
            3.065170732876491e-30,
            -0.04635737091302872,
            0.21687054634094238,
            0.17493319511413574,
            0.0033068403135985136,
            0.14099682867527008,
            3.065170732876491e-30,
            -0.09195981174707413,
            -0.9103115797042847,
            0.18249887228012085,
            0.9093987941741943,
            0.5221524834632874,
            3.065170732876491e-30,
            -0.05616635084152222,
            0.05811556801199913,
            -0.1845349818468094,
            -0.3633180558681488,
            0.5545322299003601,
            -0.17028270661830902,
            0.29566851258277893
          ]
        },
        {
          "mixing": {
            "diversity": 0.0,
            "indie_author": 0.0,
            "premium_seller": 0.4,
            "publisher": 0.6,
            "reader": 0.0
          },
          "weights": [
            1.750940203666687,
            0.20744013786315918,
            0.4206242859363556,
            -0.03252699226140976,
            -0.23213139176368713,
            -0.48112753033638,
            -0.24969914555549622,
            -0.9084582924842834,
            -0.2545035779476166,
            -0.13639363646507263,
            0.0072341603226959705,
            0.3456805646419525,
            3.065170732876491e-30,
            -0.2642110586166382,
            0.07129941135644913,
            -0.3445686995983124,
            0.09653168171644211,
            -0.5108586549758911,
            -0.03432118147611618,
            -0.012987429276108742,
            -0.9316871166229248,
            -0.13326354324817657,
            0.22847571969032288,
            0.2658770680427551,
            3.065170732876491e-30,
            0.0237550288438797,
            -0.02007138542830944,
            3.065170732876491e-30,
            -0.39958900213241577,
            0.4453030526638031,
            -0.19757723808288574,
            0.4087134003639221
          ]
        },
        {
          "mixing": {
            "diversity": 0.0,
            "indie_author": 0.0,
            "premium_seller": 0.6,
            "publisher": 0.0,
            "reader": 0.4
          },
          "weights": [
            -0.10207769274711609,
            0.5516583323478699,
            -0.42148417234420776,
            0.25916406512260437,
            -0.2699548006057739,
            -0.040977295488119125,
            -0.2838859558105469,
            0.4106496572494507,
            0.31857821345329285,
            -0.45337286591529846,
            0.36988911032676697,
            0.10489078611135483,
            -0.03985698148608208,
            -0.01493266224861145,
            0.6215681433677673,
            0.0004342751344665885,
            -0.09714850038290024,
            0.13629944622516632,
            -0.00950939767062664,
            -0.14426538348197937,
            -1.820204734802246,
            0.7654892802238464,
            2.7890496253967285,
            0.7190942764282227,
            3.065170732876491e-30,
            0.06168587878346443,
            -0.05882168933749199,
            -0.11356688290834427,
            -1.308178424835205,
            1.4286397695541382,
            -0.4290039837360382,
            0.5319725871086121
          ]
        },
        {
          "mixing": {
            "diversity": 0.0,
            "indie_author": 0.0,
            "premium_seller": 0.6,
            "publisher": 0.2,
            "reader": 0.2
          },
          "weights": [
            0.6742374300956726,
            0.25676316022872925,
            0.021737076342105865,
            0.1266821175813675,
            -0.12764710187911987,
            0.17211367189884186,
            -0.35666221380233765,
            -0.2618681490421295,
            0.294965922832489,
            -0.4999443292617798,
            0.2823741137981415,
            0.1233104020357132,
            -0.3499138653278351,
            -0.40754419565200806,
            0.4746735095977783,
            -0.2610292136669159,
            -0.053742364048957825,
            0.17046445608139038,
            -0.04490033537149429,
            0.01966368593275547,
            -1.4967120885849,
            0.032698579132556915,
            1.3862495422363281,
            0.6806974411010742,
            3.065170732876491e-30,
            -0.050611864775419235,
            0.0568305142223835,
            3.065170732876491e-30,
            -0.8225182890892029,
            0.8463189005851746,
            -0.39859241247177124,
            0.4595750570297241
          ]
        },
        {
          "mixing": {
            "diversity": 0.0,
            "indie_author": 0.0,
            "premium_seller": 0.6,
            "publisher": 0.4,
            "reader": 0.0
          },
          "weights": [
            1.2947847843170166,
            0.4261544942855835,
            0.34846729040145874,
            -0.19898319244384766,
            -0.45033904910087585,
            0.23689240217208862,
            -0.06526604294776917,
            -0.2907058000564575,
            -0.7191518545150757,
            -0.3087528645992279,
            -0.4620889723300934,
            0.1443675011396408,
            -0.25883039832115173,
            0.1042172834277153,
            -0.4746406674385071,
            0.003376573324203491,
            3.065170732876491e-30,
            0.5633182525634766,
            -0.041217025369405746,
            0.1190219521522522,
            -1.2488933801651,
            -0.12345388531684875,
            0.6631580591201782,
            0.6547968983650208,
            3.065170732876491e-30,
            -0.4687424600124359,
            0.47253015637397766,
            3.065170732876491e-30,
            -0.45635029673576355,
            0.5041349530220032,
            -0.030984237790107727,
            0.7141510248184204
          ]
        },
        {
          "mixing": {
            "diversity": 0.0,
            "indie_author": 0.0,
            "premium_seller": 0.8,
            "publisher": 0.0,
            "reader": 0.2
          },
          "weights": [
            -0.1267756074666977,
            0.30347931385040283,
            -0.0637972429394722,
            0.06909403949975967,
            -0.02174386754631996,
            0.4736814498901367,
            0.08403501659631729,
            0.36812567710876465,
            0.24354012310504913,
            -0.28258511424064636,
            -0.35836055874824524,
            0.2955774664878845,
            0.003042514668777585,
            -0.05265595391392708,
            -0.41149264574050903,
            -0.13090601563453674,
            -0.0640304908156395,
            0.36137065291404724,
            -0.002498824615031481,
            -0.22953294217586517,
            -2.5918514728546143,
            0.1523216962814331,
            2.3796873092651367,
            0.8886080384254456,
            3.065170732876491e-30,
            0.12013444304466248,
            -0.11975585669279099,
            -0.20673760771751404,
            -1.0002710819244385,
            1.2200113534927368,
            -0.5848851799964905,
            0.9103500247001648
          ]
        },
        {
          "mixing": {
            "diversity": 0.0,
            "indie_author": 0.0,
            "premium_seller": 0.8,
            "publisher": 0.2,
            "reader": 0.0
          },
          "weights": [
            1.0120797157287598,
            0.18642574548721313,
            0.1377212107181549,
            -0.05583956465125084,
            -0.23244722187519073,
            0.13042756915092468,
            -0.34697532653808594,
            -0.3119325041770935,
            0.6103981137275696,
            -0.3579389750957489,
            -0.2600979506969452,
            -0.12975214421749115,
            -0.2227955311536789,
            -0.12522563338279724,
            0.3265637457370758,
            -0.2290402501821518,
            -0.006237749941647053,
            0.1821945160627365,
            3.065170732876491e-30,
            0.08419696241617203,
            -2.0663633346557617,
            -0.4928975999355316,
            0.8160062432289124,
            1.1505833864212036,
            3.065170732876491e-30,
            -0.07839012145996094,
            0.0801149383187294,
            3.065170732876491e-30,
            -0.8595656752586365,
            0.8967413902282715,
            -0.6046044826507568,
            0.6107447147369385
          ]
        },
        {
          "mixing": {
            "diversity": 0.0,
            "indie_author": 0.2,
            "premium_seller": 0.0,
            "publisher": 0.0,
            "reader": 0.8
          },
          "weights": [
            -0.596203088760376,
            0.4259277880191803,
            -0.801153838634491,
            0.3627053499221802,
            -0.4192442297935486,
            0.7923884987831116,
            -0.38889145851135254,
            0.9030482172966003,
            -0.15424424409866333,
            -0.09966515749692917,
            0.663473904132843,
            0.07942331582307816,
            0.01471827644854784,
            0.30182361602783203,
            0.2829955816268921,
            -0.2588757574558258,
            0.12247510999441147,
            0.3752090036869049,
            -0.0904480367898941,
            0.12261161208152771,
            -0.01659402810037136,
            1.625019907951355,
            2.6305902004241943,
            -0.037735532969236374,
            3.065170732876491e-30,
            0.2517716586589813,
            -0.2491445243358612,
            -0.07734084129333496,
            -1.1712597608566284,
            1.2788949012756348,
            0.014077363535761833,
            0.16203324496746063
          ]
        },
        {
          "mixing": {
            "diversity": 0.0,
            "indie_author": 0.2,
            "premium_seller": 0.0,
            "publisher": 0.2,
            "reader": 0.6
          },
          "weights": [
            0.008815079927444458,
            0.26212701201438904,
            -0.36145254969596863,
            0.43577301502227783,
            -0.26618289947509766,
            0.2788683772087097,
            -0.13291722536087036,
            0.4521591067314148,
            -0.30252605676651,
            0.15014801919460297,
            -0.10359496623277664,
            0.021999092772603035,
            0.11216985434293747,
            -0.45782870054244995,
            0.20794257521629333,
            -0.028632991015911102,
            0.07395795732736588,
            0.26221683621406555,
            -0.22655509412288666,
            0.23126442730426788,
            0.15194754302501678,
            1.1274423599243164,
            1.6797956228256226,
            -0.186599463224411,
            3.065170732876491e-30,
            0.2858951687812805,
            -0.2830304503440857,
            0.1616518497467041,
            -0.6491643190383911,
            0.5546290278434753,
            -0.41068241000175476,
            -0.1575104296207428
          ]
        },
        {
          "mixing": {
            "diversity": 0.0,
            "indie_author": 0.2,
            "premium_seller": 0.0,
            "publisher": 0.4,
            "reader": 0.4
          },
          "weights": [
            0.6398965120315552,
            0.406279057264328,
            -0.14452315866947174,
            0.327888548374176,
            -0.16564427316188812,
            0.18271154165267944,
            -0.17088556289672852,
            -0.11265943199396133,
            -0.15289542078971863,
            -0.3512985408306122,
            0.2489098161458969,
            -0.03116721473634243,
            -0.16068069636821747,
            -0.38796305656433105,
            -0.052461352199316025,
            -0.13678009808063507,
            0.09350410103797913,
            -0.16823935508728027,
            -0.22857151925563812,
            -0.26235392689704895,
            -0.04140806198120117,
            0.47603103518486023,
            0.92110675573349,
            -0.16258001327514648,
            3.065170732876491e-30,
            0.012466199696063995,
            -0.01112375594675541,
            -0.12566117942333221,
            -0.33440274000167847,
            0.49537935853004456,
            -0.09017252922058105,
            -0.17110919952392578
          ]
        },
        {
          "mixing": {
            "diversity": 0.0,
            "indie_author": 0.2,
            "premium_seller": 0.0,
            "publisher": 0.6,
            "reader": 0.2
          },
          "weights": [
            0.9496068358421326,
            0.018883969634771347,
            -0.1395810842514038,
            0.09523017704486847,
            -0.31571945548057556,
            -0.17684122920036316,
            -0.016452962532639503,
            -0.3199150562286377,
            0.16383975744247437,
            -0.07223875820636749,
            -0.013056259602308273,
            0.2547617554664612,
            -0.05415567010641098,
            -0.15626689791679382,
            0.18014837801456451,
            -0.22628584504127502,
            3.065170732876491e-30,
            -0.02140052430331707,
            3.065170732876491e-30,
            -0.0966210886836052,
            0.10437362641096115,
            0.5247225761413574,
            0.7181325554847717,
            -0.08676934242248535,
            3.065170732876491e-30,
            -0.07309938222169876,
            0.07496772706508636,
            3.065170732876491e-30,
            -0.07770675420761108,
            0.11980871856212616,
            -0.02615748718380928,
            0.04238010197877884
          ]
        },
        {
          "mixing": {
            "diversity": 0.0,
            "indie_author": 0.2,
            "premium_seller": 0.0,
            "publisher": 0.8,
            "reader": 0.0
          },
          "weights": [
            1.9362481832504272,
            0.1509825438261032,
            0.16139563918113708,
            0.07459724694490433,
            0.06597554683685303,
            -0.8637002110481262,
            -0.1623503714799881,
            -0.1344761997461319,
            -0.012588908895850182,
            -0.2898081839084625,
            -0.6801406145095825,
            0.23829986155033112,
            -0.03242891654372215,
            0.093393974006176,
            -0.2412477284669876,
            -0.2389703392982483,
            3.065170732876491e-30,
            -0.041763100773096085,
            -0.15467001497745514,
            -0.11688601970672607,
            0.17327667772769928,
            0.4333966076374054,
            0.3356970548629761,
            0.4789120554924011,
            3.065170732876491e-30,
            -0.2248532474040985,
            0.22868165373802185,
            0.0324200764298439,
            0.04475395753979683,
            -0.03956124186515808,
            0.4634130597114563,
            0.46148526668548584
          ]
        },
        {
          "mixing": {
            "diversity": 0.0,
            "indie_author": 0.2,
            "premium_seller": 0.2,
            "publisher": 0.0,
            "reader": 0.6
          },
          "weights": [
            -0.3871116042137146,
            0.1230425238609314,
            -0.6636663675308228,
            0.7436164617538452,
            -0.009696416556835175,
            0.8864401578903198,
            -0.11482815444469452,
            0.22602444887161255,
            0.3013678193092346,
            -0.14198334515094757,
            0.28474074602127075,
            7.307229680009186e-05,
            -0.3475365936756134,
            -0.2545386254787445,
            0.6396258473396301,
            -0.0576876737177372,
            -0.1336485594511032,
            0.5328298807144165,
            -0.2564179599285126,
            0.05912254378199577,
            -0.44102177023887634,
            0.9666205048561096,
            1.8626163005828857,
            0.23435960710048676,
            3.065170732876491e-30,
            0.06558765470981598,
            -0.06472708284854889,
            3.065170732876491e-30,
            -0.9637280106544495,
            0.9922088384628296,
            -0.02736850082874298,
            0.18189628422260284
          ]
        },
        {
          "mixing": {
            "diversity": 0.0,
            "indie_author": 0.2,
            "premium_seller": 0.2,
            "publisher": 0.2,
            "reader": 0.4
          },
          "weights": [
            0.14008557796478271,
            0.14899960160255432,
            -0.3504578769207001,
            0.34055671095848083,
            0.008787907660007477,
            0.44508096575737,
            -0.0057957591488957405,
            0.2172592431306839,
            0.2012697458267212,
            -0.32743600010871887,
            0.36353594064712524,
            0.2865101397037506,
            -0.00256421254016459,
            -0.2290601134300232,
            0.281078577041626,
            -0.25591304898262024,
            -0.12352672964334488,
            0.15160848200321198,
            3.065170732876491e-30,
            -0.38636812567710876,
            -0.2147054821252823,
            0.6384325623512268,
            1.3906526565551758,
            0.3666175305843353,
            3.065170732876491e-30,
            0.11417822539806366,
            -0.11091739684343338,
            0.02356916293501854,
            -0.4476960599422455,
            0.463377982378006,
            -0.3357974588871002,
            -0.3072564899921417
          ]
        },
        {
          "mixing": {
            "diversity": 0.0,
            "indie_author": 0.2,
            "premium_seller": 0.2,
            "publisher": 0.4,
            "reader": 0.2
          },
          "weights": [
            0.6127520799636841,
            0.07159847766160965,
            -0.13225175440311432,
            0.3355123698711395,
            -0.137436181306839,
            -0.10382718592882156,
            -0.3135632276535034,
            -0.22772549092769623,
            -0.2569531798362732,
            -0.45793160796165466,
            0.26126664876937866,
            0.48907604813575745,
            0.05800531432032585,
            -0.058036599308252335,
            0.410850465297699,
            -0.21845124661922455,
            -0.17591680586338043,
            0.1523282378911972,
            3.065170732876491e-30,
            -0.26412346959114075,
            -0.5033087134361267,
            0.3424034118652344,
            0.6436043977737427,
            0.2471979558467865,
            3.065170732876491e-30,
            -0.18561877310276031,
            0.19012145698070526,
            0.10883128643035889,
            -0.3876333236694336,
            0.3606111407279968,
            0.1610303670167923,
            0.23624028265476227
          ]
        },
        {
          "mixing": {
            "diversity": 0.0,
            "indie_author": 0.2,
            "premium_seller": 0.2,
            "publisher": 0.6,
            "reader": 0.0
          },
          "weights": [
            1.1462907791137695,
            0.17433825135231018,
            0.0647994801402092,
            0.4238491654396057,
            -0.007220699451863766,
            -0.16854459047317505,
            -0.3850201964378357,
            -0.43433278799057007,
            -0.5225620865821838,
            -0.07748071849346161,
            -0.28834912180900574,
            -0.223223015666008,
            -0.048093002289533615,
            0.20252953469753265,
            -0.058889247477054596,
            0.17181991040706635,
            -0.24424773454666138,
            3.065170732876491e-30,
            0.0739675760269165,
            -0.13071323931217194,
            -0.2076738178730011,
            0.18633712828159332,
            0.37955647706985474,
            0.20697520673274994,
            3.065170732876491e-30,
            -0.05186370387673378,
            0.05504075065255165,
            3.065170732876491e-30,
            -0.27597805857658386,
            0.31392621994018555,
            0.07704595476388931,
            0.20725642144680023
          ]
        },
        {
          "mixing": {
            "diversity": 0.0,
            "indie_author": 0.2,
            "premium_seller": 0.4,
            "publisher": 0.0,
            "reader": 0.4
          },
          "weights": [
            -0.4762919545173645,
            -0.03318983316421509,
            -0.5973503589630127,
            0.3000486195087433,
            0.0028765941970050335,
            0.7312408685684204,
            0.09477049857378006,
            0.36634430289268494,
            0.39482682943344116,
            -0.14354091882705688,
            0.2502601742744446,
            -0.02054416760802269,
            -0.251849889755249,
            0.07352233678102493,
            0.34200340509414673,
            3.065170732876491e-30,
            -0.23482318222522736,
            0.07824428379535675,
            3.065170732876491e-30,
            0.18761718273162842,
            -1.1026815176010132,
            0.3856838643550873,
            1.3768278360366821,
            0.6366125345230103,
            3.065170732876491e-30,
            0.35188525915145874,
            -0.34987232089042664,
            3.065170732876491e-30,
            -1.0147181749343872,
            1.0451297760009766,
            -0.616497278213501,
            0.18779107928276062
          ]
        },
        {
          "mixing": {
            "diversity": 0.0,
            "indie_author": 0.2,
            "premium_seller": 0.4,
            "publisher": 0.2,
            "reader": 0.2
          },
          "weights": [
            0.15217438340187073,
            -0.205758199095726,
            -0.29464486241340637,
            0.03179385885596275,
            -0.17738963663578033,
            0.2334762066602707,
            0.1690184772014618,
            0.01448060292750597,
            0.053589269518852234,
            -0.18819542229175568,
            0.15211981534957886,
            0.12173080444335938,
            -0.20693108439445496,
            -0.15070636570453644,
            0.3685213327407837,
            0.07399976253509521,
            0.0516383983194828,
            3.065170732876491e-30,
            0.2316446751356125,
            0.23796346783638,
            -0.9220028519630432,
            0.02176055498421192,
            0.6708612442016602,
            0.5191758871078491,
            3.065170732876491e-30,
            0.08035937696695328,
            -0.07917308807373047,
            3.065170732876491e-30,
            -0.517407238483429,
            0.5607902407646179,
            -0.3387148976325989,
            0.2640671730041504
          ]
        },
        {
          "mixing": {
            "diversity": 0.0,
            "indie_author": 0.2,
            "premium_seller": 0.4,
            "publisher": 0.4,
            "reader": 0.0
          },
          "weights": [
            0.7829466462135315,
            -0.24452358484268188,
            -0.045231226831674576,
            0.10065001249313354,
            -0.017544258385896683,
            -0.16479496657848358,
            -0.11927821487188339,
            0.1869506984949112,
            -0.3216276466846466,
            -0.22274644672870636,
            -0.18974292278289795,
            0.46400123834609985,
            -0.06532811373472214,
            -0.5178526639938354,
            0.00990181416273117,
            0.0658886656165123,
            0.0680292621254921,
            -0.16918732225894928,
            -0.19585499167442322,
            0.7464329600334167,
            -0.9414358735084534,
            -0.13583670556545258,
            0.30293506383895874,
            0.6643499732017517,
            3.065170732876491e-30,
            -0.032803647220134735,
            0.035292740911245346,
            -0.2159319370985031,
            -0.10091126710176468,
            0.31003057956695557,
            -0.12799854576587677,
            0.39623525738716125
          ]
        },
        {
          "mixing": {
            "diversity": 0.0,
            "indie_author": 0.2,
            "premium_seller": 0.6,
            "publisher": 0.0,
            "reader": 0.2
          },
          "weights": [
            -0.15597091615200043,
            -0.2165497988462448,
            -0.4582110345363617,
            0.3718944489955902,
            -0.15944845974445343,
            0.37851274013519287,
            0.042046234011650085,
            0.1999567151069641,
            0.5672239661216736,
            -0.20538343489170074,
            0.748172402381897,
            0.5135846138000488,
            -0.2208956778049469,
            -0.28830334544181824,
            0.37549734115600586,
            -0.021603086963295937,
            -0.22247667610645294,
            -0.2688603699207306,
            -0.11802306026220322,
            0.298806756734848,
            -1.3819985389709473,
            0.4797022342681885,
            1.3264583349227905,
            0.42360273003578186,
            3.065170732876491e-30,
            0.43873730301856995,
            -0.4370044469833374,
            -0.36170920729637146,
            -0.5727100968360901,
            0.909925103187561,
            -0.6313928365707397,
            0.5049444437026978
          ]
        },
        {
          "mixing": {
            "diversity": 0.0,
            "indie_author": 0.2,
            "premium_seller": 0.6,
            "publisher": 0.2,
            "reader": 0.0
          },
          "weights": [
            0.4402557611465454,
            -0.1235286295413971,
            -0.020672811195254326,
            0.07900378853082657,
            0.2148580402135849,
            0.3944050073623657,
            -0.33542561531066895,
            0.4525328278541565,
            0.20316395163536072,
            -0.4952102303504944,
            -0.18095563352108002,
            0.2300659716129303,
            0.09309698641300201,
            -0.5150732398033142,
            0.21733811497688293,
            -0.17463064193725586,
            -0.023096149787306786,
            0.07939746975898743,
            3.065170732876491e-30,
            0.13751374185085297,
            -1.3366472721099854,
            -0.5007587671279907,
            0.2870262563228607,
            0.7999290823936462,
            3.065170732876491e-30,
            0.06368673592805862,
            -0.06209824979305267,
            3.065170732876491e-30,
            -0.2763763964176178,
            0.32335153222084045,
            -0.10916753113269806,
            0.6214708685874939
          ]
        },
        {
          "mixing": {
            "diversity": 0.0,
            "indie_author": 0.2,
            "premium_seller": 0.8,
            "publisher": 0.0,
            "reader": 0.0
          },
          "weights": [
            -0.49096769094467163,
            -0.5140666961669922,
            -0.24526788294315338,
            0.21624255180358887,
            0.0008502815035171807,
            0.20531387627124786,
            0.467860609292984,
            0.0449017733335495,
            0.7403345108032227,
            0.13819913566112518,
            -0.06880221515893936,
            0.14595089852809906,
            -0.11596692353487015,
            -0.08782494813203812,
            0.35699012875556946,
            0.1051405519247055,
            0.010470418259501457,
            0.05017082765698433,
            -0.0439063236117363,
            0.27572813630104065,
            -1.9620975255966187,
            -0.28395602107048035,
            0.8053407669067383,
            0.7913944125175476,
            3.065170732876491e-30,
            0.15580208599567413,
            -0.15098820626735687,
            3.065170732876491e-30,
            -0.8101601600646973,
            0.8381171226501465,
            -0.5801817774772644,
            0.42926591634750366
          ]
        },
        {
          "mixing": {
            "diversity": 0.0,
            "indie_author": 0.4,
            "premium_seller": 0.0,
            "publisher": 0.0,
            "reader": 0.6
          },
          "weights": [
            -0.7233313918113708,
            -0.03892658278346062,
            -1.0613722801208496,
            0.6651334166526794,
            0.054365988820791245,
            0.2908051013946533,
            -0.07603657245635986,
            1.102347493171692,
            -0.01263769157230854,
            -0.10268561542034149,
            -0.37853291630744934,
            0.5079180598258972,
            -0.17083987593650818,
            0.1629265695810318,
            0.8951546549797058,
            -0.013286562636494637,
            -0.4519200623035431,
            0.15404339134693146,
            3.065170732876491e-30,
            0.19006069004535675,
            0.0512826070189476,
            1.2547192573547363,
            1.9753968715667725,
            0.06970378756523132,
            3.065170732876491e-30,
            0.5903158783912659,
            -0.5886911153793335,
            -0.11043845117092133,
            -0.886338472366333,
            1.010480523109436,
            0.1451173573732376,
            0.08347906172275543
          ]
        },
        {
          "mixing": {
            "diversity": 0.0,
            "indie_author": 0.4,
            "premium_seller": 0.0,
            "publisher": 0.2,
            "reader": 0.4
          },
          "weights": [
            -0.3208760619163513,
            -0.11159609258174896,
            -0.7129845023155212,
            0.5469553470611572,
            0.21471716463565826,
            0.23207156360149384,
            -0.4849395155906677,
            0.11866515129804611,
            0.07218396663665771,
            0.17612285912036896,
            0.21010400354862213,
            0.5134586095809937,
            0.24334540963172913,
            0.25521451234817505,
            -0.2273479402065277,
            0.1934986263513565,
            0.12467975169420242,
            0.13505519926548004,
            3.065170732876491e-30,
            0.29756292700767517,
            0.022955335676670074,
            0.7806364297866821,
            1.0068376064300537,
            0.0918848067522049,
            3.065170732876491e-30,
            0.32671934366226196,
            -0.32612344622612,
            3.065170732876491e-30,
            -0.38217437267303467,
            0.4297686219215393,
            -0.23905763030052185,
            -0.3107510805130005
          ]
        },
        {
          "mixing": {
            "diversity": 0.0,
            "indie_author": 0.4,
            "premium_seller": 0.0,
            "publisher": 0.4,
            "reader": 0.2
          },
          "weights": [
            0.36591848731040955,
            -0.3568434417247772,
            -0.3561980426311493,
            0.5331518650054932,
            0.1377219706773758,
            0.25204265117645264,
            -0.4246487617492676,
            -0.01064045075327158,
            0.23042701184749603,
            -0.20475831627845764,
            0.3731502890586853,
            0.16204048693180084,
            -0.19386252760887146,
            -0.16159670054912567,
            0.25598230957984924,
            0.15114246308803558,
            0.08653192222118378,
            0.08027392625808716,
            -0.1651257574558258,
            0.20119746029376984,
            0.11256584525108337,
            0.28547438979148865,
            0.5016140341758728,
            0.5847037434577942,
            3.065170732876491e-30,
            0.16920529305934906,
            -0.16674965620040894,
            0.11175086349248886,
            -0.2989563047885895,
            0.2545589804649353,
            -0.04773577302694321,
            0.037487756460905075
          ]
        },
        {
          "mixing": {
            "diversity": 0.0,
            "indie_author": 0.4,
            "premium_seller": 0.0,
            "publisher": 0.6,
            "reader": 0.0
          },
          "weights": [
            0.753108024597168,
            -0.42042702436447144,
            -0.21047964692115784,
            0.2268206924200058,
            0.2975885570049286,
            -0.046516053378582,
            -0.44054079055786133,
            0.07144565880298615,
            0.04163036122918129,
            0.46526554226875305,
            -0.16668617725372314,
            -0.0019148789579048753,
            0.3043670058250427,
            0.41815897822380066,
            -0.029791757464408875,
            0.08612988889217377,
            0.2080576866865158,
            -0.3446192741394043,
            3.065170732876491e-30,
            -0.361074835062027,
            0.010136009193956852,
            0.08769899606704712,
            -0.018789956346154213,
            0.17677101492881775,
            3.065170732876491e-30,
            -0.08271345496177673,
            0.08618984371423721,
            0.22375962138175964,
            -0.16280265152454376,
            0.018269546329975128,
            -0.07309748232364655,
            -0.06287270039319992
          ]
        },
        {
          "mixing": {
            "diversity": 0.0,
            "indie_author": 0.4,
            "premium_seller": 0.2,
            "publisher": 0.0,
            "reader": 0.4
          },
          "weights": [
            -0.7975908517837524,
            -0.49587398767471313,
            -0.948696494102478,
            0.32912883162498474,
            0.05809767544269562,
            0.9746412038803101,
            0.00228801928460598,
            0.5550675988197327,
            -0.09277106821537018,
            -0.3902009427547455,
            0.7377811670303345,
            0.5948279500007629,
            0.023743726313114166,
            -0.15098963677883148,
            0.6268927454948425,
            -0.2143368124961853,
            -0.27315282821655273,
            0.12060007452964783,
            0.149281308054924,
            0.426576167345047,
            -0.3743656873703003,
            0.7436183094978333,
            1.1088545322418213,
            0.1714349389076233,
            3.065170732876491e-30,
            0.6834012866020203,
            -0.6818512082099915,
            3.065170732876491e-30,
            -0.713967502117157,
            0.7449278235435486,
            -0.11207571625709534,
            0.1596367210149765
          ]
        },
        {
          "mixing": {
            "diversity": 0.0,
            "indie_author": 0.4,
            "premium_seller": 0.2,
            "publisher": 0.2,
            "reader": 0.2
          },
          "weights": [
            -0.179164320230484,
            -0.31727081537246704,
            -0.61435467004776,
            0.2680768072605133,
            0.20658430457115173,
            0.007642120122909546,
            0.27397122979164124,
            -0.006235623732209206,
            0.17342612147331238,
            0.20420680940151215,
            0.6202300786972046,
            0.13265253603458405,
            0.0662655308842659,
            0.2551508843898773,
            -0.0065271188504993916,
            0.24163129925727844,
            0.10320263355970383,
            3.065170732876491e-30,
            -0.11692719161510468,
            -0.16554926335811615,
            -0.4013763964176178,
            0.22247470915317535,
            0.6761751770973206,
            -0.051500774919986725,
            3.065170732876491e-30,
            0.10035090148448944,
            -0.09751281142234802,
            3.065170732876491e-30,
            -0.3284205198287964,
            0.3743746876716614,
            -0.2385549247264862,
            -0.06042100116610527
          ]
        },
        {
          "mixing": {
            "diversity": 0.0,
            "indie_author": 0.4,
            "premium_seller": 0.2,
            "publisher": 0.4,
            "reader": 0.0
          },
          "weights": [
            0.4986565113067627,
            -0.30216914415359497,
            -0.3010958135128021,
            0.6157351732254028,
            0.17310163378715515,
            0.1755162626504898,
            0.23574870824813843,
            0.06869740784168243,
            0.0944809839129448,
            -0.13131465017795563,
            -0.7166569232940674,
            -0.05243081972002983,
            0.22412702441215515,
            -0.06016044318675995,
            -0.4344613552093506,
            -0.21945373713970184,
            0.18125160038471222,
            -0.14298830926418304,
            -0.12140616029500961,
            0.12190090119838715,
            -0.38837483525276184,
            -0.032466061413288116,
            0.05741922929883003,
            0.2574644386768341,
            3.065170732876491e-30,
            -0.058368980884552,
            0.06639964133501053,
            3.065170732876491e-30,
            -0.10914693772792816,
            0.1561857908964157,
            -0.06795863062143326,
            0.2032577395439148
          ]
        },
        {
          "mixing": {
            "diversity": 0.0,
            "indie_author": 0.4,
            "premium_seller": 0.4,
            "publisher": 0.0,
            "reader": 0.2
          },
          "weights": [
            -0.5679290294647217,
            -0.47118306159973145,
            -1.054397463798523,
            0.5078433156013489,
            0.11941957473754883,
            0.6111335754394531,
            0.2830076515674591,
            0.16372975707054138,
            0.593258261680603,
            0.20189432799816132,
            0.5680096745491028,
            0.24349729716777802,
            0.08332119882106781,
            -0.04243103414773941,
            0.07851256430149078,
            -0.349675714969635,
            -0.02833239734172821,
            0.3308876156806946,
            -0.2354130893945694,
            0.28262093663215637,
            -0.9372969269752502,
            0.2959957718849182,
            1.051117181777954,
            0.4977981448173523,
            3.065170732876491e-30,
            0.20531126856803894,
            -0.20405526459217072,
            3.065170732876491e-30,
            -0.6610793471336365,
            0.694021463394165,
            0.26765838265419006,
            0.6170250177383423
          ]
        },
        {
          "mixing": {
            "diversity": 0.0,
            "indie_author": 0.4,
            "premium_seller": 0.4,
            "publisher": 0.2,
            "reader": 0.0
          },
          "weights": [
            -0.09228946268558502,
            -0.562845766544342,
            -0.4044986367225647,
            0.3302704989910126,
            -0.009024223312735558,
            -0.09134270250797272,
            0.08038593828678131,
            0.685819149017334,
            0.02032666839659214,
            0.42568913102149963,
            -0.10363331437110901,
            0.44602328538894653,
            0.35917049646377563,
            0.06551212817430496,
            -0.12007889151573181,
            0.31150367856025696,
            -0.11052006483078003,
            0.2509517967700958,
            3.065170732876491e-30,
            0.43781372904777527,
            -0.645555853843689,
            -0.12313682585954666,
            0.3323492705821991,
            0.8336919546127319,
            3.065170732876491e-30,
            0.43027180433273315,
            -0.4293695390224457,
            -0.15228816866874695,
            -0.06679423153400421,
            0.23130947351455688,
            -0.0605265237390995,
            0.08593133091926575
          ]
        },
        {
          "mixing": {
            "diversity": 0.0,
            "indie_author": 0.4,
            "premium_seller": 0.6,
            "publisher": 0.0,
            "reader": 0.0
          },
          "weights": [
            -0.7545437812805176,
            -0.7368485927581787,
            -0.6594877243041992,
            0.15017977356910706,
            -0.013703200034797192,
            0.06894082576036453,
            0.05956555902957916,
            0.19363993406295776,
            1.1007531881332397,
            -0.06363080441951752,
            0.5721327066421509,
            0.8638291954994202,
            -0.05172554403543472,
            0.04514177143573761,
            0.5677942037582397,
            0.09930502623319626,
            0.020738806575536728,
            0.21309776604175568,
            0.12144001573324203,
            -0.2995055913925171,
            -1.3024669885635376,
            -0.42062389850616455,
            0.4409317970275879,
            0.5348320603370667,
            3.065170732876491e-30,
            0.3906443119049072,
            -0.3895103335380554,
            3.065170732876491e-30,
            -0.41225653886795044,
            0.4485197365283966,
            -0.16705933213233948,
            0.7120006680488586
          ]
        },
        {
          "mixing": {
            "diversity": 0.0,
            "indie_author": 0.6,
            "premium_seller": 0.0,
            "publisher": 0.0,
            "reader": 0.4
          },
          "weights": [
            -1.208972692489624,
            -0.5998701453208923,
            -1.321569800376892,
            0.7697992920875549,
            0.04197138920426369,
            1.184277057647705,
            -0.07286731153726578,
            0.5341541171073914,
            0.7968497276306152,
            0.5698278546333313,
            0.5189113616943359,
            0.3083508312702179,
            0.2852717936038971,
            -0.005970957223325968,
            0.24191729724407196,
            -0.1805533468723297,
            0.07733792811632156,
            0.15949399769306183,
            3.065170732876491e-30,
            -0.03217097744345665,
            -0.09366425126791,
            0.49686816334724426,
            1.20620596408844,
            0.15113283693790436,
            3.065170732876491e-30,
            0.6739813685417175,
            -0.6727002263069153,
            3.065170732876491e-30,
            -0.3056011199951172,
            0.34671610593795776,
            0.06519001722335815,
            -0.0038052182644605637
          ]
        },
        {
          "mixing": {
            "diversity": 0.0,
            "indie_author": 0.6,
            "premium_seller": 0.0,
            "publisher": 0.2,
            "reader": 0.2
          },
          "weights": [
            -0.44052496552467346,
            -0.5971360802650452,
            -0.7843265533447266,
            0.7450451850891113,
            0.4668806791305542,
            0.8118966221809387,
            0.14454086124897003,
            0.36937209963798523,
            0.3042931854724884,
            -0.6037726998329163,
            0.757556140422821,
            0.37131398916244507,
            -0.18851162493228912,
            -0.035670291632413864,
            0.10056399554014206,
            -0.4513368010520935,
            3.065170732876491e-30,
            0.08726055175065994,
            0.10690797120332718,
            0.02384892664849758,
            0.04847928509116173,
            0.3695618212223053,
            0.6018508076667786,
            0.09193847328424454,
            3.065170732876491e-30,
            0.1378815621137619,
            -0.13493353128433228,
            -0.13599540293216705,
            -0.14047959446907043,
            0.2980959117412567,
            -0.12570780515670776,
            -0.04073665663599968
          ]
        },
        {
          "mixing": {
            "diversity": 0.0,
            "indie_author": 0.6,
            "premium_seller": 0.0,
            "publisher": 0.4,
            "reader": 0.0
          },
          "weights": [
            0.20954184234142303,
            -0.5849553942680359,
            -0.5266657471656799,
            0.4162891209125519,
            0.5740935802459717,
            0.5197721719741821,
            0.1691565364599228,
            0.10297688096761703,
            0.24314332008361816,
            -0.03306847810745239,
            -0.12432613223791122,
            0.31848910450935364,
            -0.023047450929880142,
            0.24767112731933594,
            0.17119336128234863,
            0.06299632787704468,
            0.18845461308956146,
            -0.23607276380062103,
            -0.17858533561229706,
            0.2699738144874573,
            0.029090914875268936,
            0.15320685505867004,
            -0.02987496368587017,
            -0.05446651577949524,
            3.065170732876491e-30,
            -0.08724801242351532,
            0.09073653817176819,
            3.065170732876491e-30,
            0.19871817529201508,
            -0.1565464586019516,
            0.04293930158019066,
            0.21495386958122253
          ]
        },
        {
          "mixing": {
            "diversity": 0.0,
            "indie_author": 0.6,
            "premium_seller": 0.2,
            "publisher": 0.0,
            "reader": 0.2
          },
          "weights": [
            -1.1510727405548096,
            -1.0203678607940674,
            -1.0202226638793945,
            0.5163681507110596,
            0.38432833552360535,
            0.54810631275177,
            0.25088784098625183,
            0.4318588972091675,
            0.9046969413757324,
            -0.10000541806221008,
            0.4885717034339905,
            0.15487627685070038,
            0.1259349286556244,
            0.29423636198043823,
            0.34499356150627136,
            0.07365831732749939,
            -0.015597213990986347,
            3.065170732876491e-30,
            0.12755466997623444,
            0.3133790194988251,
            -0.26332539319992065,
            0.539189875125885,
            0.6205145716667175,
            0.30309396982192993,
            3.065170732876491e-30,
            0.37648600339889526,
            -0.3748336434364319,
            -0.09126249700784683,
            -0.4026828706264496,
            0.5201157331466675,
            -0.4659738838672638,
            -0.07884889096021652
          ]
        },
        {
          "mixing": {
            "diversity": 0.0,
            "indie_author": 0.6,
            "premium_seller": 0.2,
            "publisher": 0.2,
            "reader": 0.0
          },
          "weights": [
            -0.4602549970149994,
            -1.0163475275039673,
            -0.7496940493583679,
            0.29297879338264465,
            0.12036968022584915,
            0.29219523072242737,
            0.11145661026239395,
            0.27139925956726074,
            0.18335093557834625,
            0.0069455043412745,
            0.5581174492835999,
            -0.3086523711681366,
            0.2637447118759155,
            0.659317672252655,
            -0.2594335675239563,
            0.3870139420032501,
            0.045934710651636124,
            0.3044489324092865,
            0.10328197479248047,
            0.33690303564071655,
            -0.274962455034256,
            0.10055375844240189,
            0.25852322578430176,
            0.48764362931251526,
            3.065170732876491e-30,
            0.17079687118530273,
            -0.17007708549499512,
            3.065170732876491e-30,
            -0.24699148535728455,
            0.2875168025493622,
            0.1700875163078308,
            0.46981653571128845
          ]
        },
        {
          "mixing": {
            "diversity": 0.0,
            "indie_author": 0.6,
            "premium_seller": 0.4,
            "publisher": 0.0,
            "reader": 0.0
          },
          "weights": [
            -0.9483477473258972,
            -1.0542504787445068,
            -1.0482287406921387,
            0.24928803741931915,
            0.41308704018592834,
            0.8634952306747437,
            0.6711522936820984,
            0.4014817476272583,
            0.5988625288009644,
            -0.28270334005355835,
            0.3000743091106415,
            0.4995148777961731,
            0.2006942182779312,
            0.20771116018295288,
            0.092217355966568,
            0.10073702037334442,
            -0.052027542144060135,
            3.065170732876491e-30,
            -0.12486650049686432,
            0.43020445108413696,
            -1.0015093088150024,
            -0.22552280128002167,
            0.12817367911338806,
            0.33969181776046753,
            3.065170732876491e-30,
            0.5021712779998779,
            -0.5014076828956604,
            3.065170732876491e-30,
            -0.29334545135498047,
            0.33239680528640747,
            -0.20263534784317017,
            0.1525532752275467
          ]
        },
        {
          "mixing": {
            "diversity": 0.0,
            "indie_author": 0.8,
            "premium_seller": 0.0,
            "publisher": 0.0,
            "reader": 0.2
          },
          "weights": [
            -1.5339504480361938,
            -1.3795959949493408,
            -1.569532036781311,
            0.7704964280128479,
            0.27961790561676025,
            0.7741402983665466,
            0.3205831050872803,
            1.0122565031051636,
            0.6134768128395081,
            -0.08027113974094391,
            0.8834972977638245,
            0.48325857520103455,
            0.05800340324640274,
            0.22265280783176422,
            0.3044290244579315,
            0.1334778070449829,
            0.04093865677714348,
            0.10409201681613922,
            3.065170732876491e-30,
            0.4425666034221649,
            0.08908601850271225,
            0.22305293381214142,
            0.687376856803894,
            0.04892953485250473,
            3.065170732876491e-30,
            0.5739875435829163,
            -0.5734435319900513,
            3.065170732876491e-30,
            0.04402043670415878,
            -0.008136323653161526,
            0.22607001662254333,
            0.1650240272283554
          ]
        },
        {
          "mixing": {
            "diversity": 0.0,
            "indie_author": 0.8,
            "premium_seller": 0.0,
            "publisher": 0.2,
            "reader": 0.0
          },
          "weights": [
            -0.7279883027076721,
            -1.0210553407669067,
            -0.9090155363082886,
            0.43109849095344543,
            0.16900213062763214,
            0.24519577622413635,
            0.3488609194755554,
            0.20667274296283722,
            -0.12671175599098206,
            0.024422209709882736,
            0.440334290266037,
            0.9779573678970337,
            0.24565193057060242,
            0.3010057508945465,
            0.22853641211986542,
            0.34606361389160156,
            0.051665227860212326,
            -0.12998300790786743,
            -0.3945125937461853,
            0.23808054625988007,
            -0.06879410147666931,
            -0.06197480484843254,
            0.023961925879120827,
            0.22248196601867676,
            3.065170732876491e-30,
            0.35687345266342163,
            -0.3545924127101898,
            3.065170732876491e-30,
            -0.17209701240062714,
            0.21172119677066803,
            -0.005263978149741888,
            -0.08070558309555054
          ]
        },
        {
          "mixing": {
            "diversity": 0.0,
            "indie_author": 0.8,
            "premium_seller": 0.2,
            "publisher": 0.0,
            "reader": 0.0
          },
          "weights": [
            -1.4664363861083984,
            -1.5074307918548584,
            -1.6516215801239014,
            0.5395746827125549,
            0.48981156945228577,
            0.5243092179298401,
            0.47923678159713745,
            0.44752198457717896,
            0.9042412042617798,
            0.19849199056625366,
            0.8992416262626648,
            0.21997042000293732,
            0.2085144817829132,
            0.4425629675388336,
            0.2746336758136749,
            0.22020632028579712,
            3.065170732876491e-30,
            3.065170732876491e-30,
            3.065170732876491e-30,
            0.09406309574842453,
            -0.36700156331062317,
            -0.273063600063324,
            0.14996086061000824,
            0.2890583574771881,
            3.065170732876491e-30,
            0.48219770193099976,
            -0.4805868864059448,
            -0.3016337454319,
            -0.08172731846570969,
            0.3692452013492584,
            -0.43811264634132385,
            -0.2911948263645172
          ]
        },
        {
          "mixing": {
            "diversity": 0.2,
            "indie_author": 0.0,
            "premium_seller": 0.0,
            "publisher": 0.0,
            "reader": 0.8
          },
          "weights": [
            -0.8198822140693665,
            0.5602495074272156,
            -0.35088178515434265,
            0.5753676891326904,
            -0.2762177586555481,
            0.6641151905059814,
            0.03507799282670021,
            0.32122257351875305,
            0.0014163099694997072,
            0.048384059220552444,
            0.6668004989624023,
            0.20368868112564087,
            3.065170732876491e-30,
            -0.4457240104675293,
            0.5642995238304138,
            -0.3712071478366852,
            0.018802281469106674,
            0.18829935789108276,
            -0.11085580289363861,
            -0.22905272245407104,
            -0.13927608728408813,
            1.5837149620056152,
            2.684905529022217,
            0.482962042093277,
            3.065170732876491e-30,
            -0.15001870691776276,
            0.1501515954732895,
            -0.10358492285013199,
            -1.0450140237808228,
            1.1678906679153442,
            0.26675957441329956,
            0.12258417159318924
          ]
        },
        {
          "mixing": {
            "diversity": 0.2,
            "indie_author": 0.0,
            "premium_seller": 0.0,
            "publisher": 0.2,
            "reader": 0.6
          },
          "weights": [
            -0.1065506786108017,
            0.47984579205513,
            -0.3437806963920593,
            0.17762891948223114,
            -0.24470725655555725,
            0.5895683169364929,
            -0.41896143555641174,
            0.101457878947258,
            0.03042573109269142,
            -0.11661587655544281,
            -0.02679743990302086,
            -0.17607252299785614,
            0.18349432945251465,
            -0.14659510552883148,
            0.28124144673347473,
            0.17544245719909668,
            0.025429699569940567,
            0.25593024492263794,
            0.18328022956848145,
            0.09373056143522263,
            0.10836643725633621,
            1.1696243286132812,
            1.832139253616333,
            0.8493418097496033,
            3.065170732876491e-30,
            0.15413160622119904,
            -0.150714710354805,
            -0.30997562408447266,
            -0.3677496016025543,
            0.6618322730064392,
            0.05551527068018913,
            0.04830465093255043
          ]
        },
        {
          "mixing": {
            "diversity": 0.2,
            "indie_author": 0.0,
            "premium_seller": 0.0,
            "publisher": 0.4,
            "reader": 0.4
          },
          "weights": [
            0.4159528613090515,
            0.31419968605041504,
            -0.10060451179742813,
            0.18515974283218384,
            -0.30810901522636414,
            0.47957587242126465,
            -0.0638887956738472,
            0.06677012145519257,
            0.015487032942473888,
            -0.1281551867723465,
            0.3459562659263611,
            0.15382151305675507,
            -0.003120262874290347,
            -0.270859032869339,
            -0.2853957712650299,
            -0.14750714600086212,
            3.065170732876491e-30,
            -0.07970744371414185,
            -0.2369460165500641,
            -0.3161102533340454,
            0.03747299313545227,
            0.6436149477958679,
            0.9383612871170044,
            -0.4007347822189331,
            3.065170732876491e-30,
            -0.29939427971839905,
            0.30240491032600403,
            0.12534698843955994,
            -0.3774951100349426,
            0.3169836699962616,
            0.015465134754776955,
            0.07307671010494232
          ]
        },
        {
          "mixing": {
            "diversity": 0.2,
            "indie_author": 0.0,
            "premium_seller": 0.0,
            "publisher": 0.6,
            "reader": 0.2
          },
          "weights": [
            0.8222299814224243,
            0.175226092338562,
            0.13258671760559082,
            0.2753758132457733,
            -0.17133136093616486,
            -0.135013148188591,
            -0.19753481447696686,
            -0.3201565146446228,
            -0.15564841032028198,
            0.14247317612171173,
            -0.030176537111401558,
            -0.4632055163383484,
            -0.07383005321025848,
            -0.0593443289399147,
            0.062264829874038696,
            -0.35169288516044617,
            0.21018409729003906,
            0.03919221833348274,
            3.065170732876491e-30,
            0.31820523738861084,
            -0.22087597846984863,
            0.0738336518406868,
            0.3851553499698639,
            -0.00020166733884252608,
            3.065170732876491e-30,
            -0.3886369466781616,
            0.38924136757850647,
            3.065170732876491e-30,
            -0.1936299055814743,
            0.2408204972743988,
            -0.21330676972866058,
            -0.14609938859939575
          ]
        },
        {
          "mixing": {
            "diversity": 0.2,
            "indie_author": 0.0,
            "premium_seller": 0.0,
            "publisher": 0.8,
            "reader": 0.0
          },
          "weights": [
            1.4381345510482788,
            0.3703458607196808,
            0.6930829882621765,
            0.04341859742999077,
            -0.023386741057038307,
            -0.3818115293979645,
            -0.15839774906635284,
            -0.66774582862854,
            -0.19003944098949432,
            0.017022663727402687,
            -0.41195857524871826,
            -0.12581369280815125,
            0.0045853559859097,
            0.03276575729250908,
            -0.0431181974709034,
            -0.36232805252075195,
            3.065170732876491e-30,
            -0.3411370813846588,
            -0.3116687536239624,
            0.20858114957809448,
            0.08915288001298904,
            0.15907834470272064,
            0.0377950593829155,
            0.019952842965722084,
            3.065170732876491e-30,
            -0.4677836298942566,
            0.46874889731407166,
            0.18782027065753937,
            -0.03798951953649521,
            -0.050340574234724045,
            -0.13313846290111542,
            -0.059427496045827866
          ]
        },
        {
          "mixing": {
            "diversity": 0.2,
            "indie_author": 0.0,
            "premium_seller": 0.2,
            "publisher": 0.0,
            "reader": 0.6
          },
          "weights": [
            -0.7413143515586853,
            0.15718106925487518,
            -0.5507388114929199,
            0.1816488802433014,
            -0.3021334409713745,
            0.6096228361129761,
            0.2717107832431793,
            0.8352662324905396,
            0.2997933626174927,
            -0.041309904307127,
            0.27939796447753906,
            0.21279916167259216,
            -0.2687129080295563,
            0.3162488043308258,
            0.2881121039390564,
            -0.12867474555969238,
            -0.13282787799835205,
            0.09441493451595306,
            3.065170732876491e-30,
            0.4025269150733948,
            -0.6215872764587402,
            1.1513609886169434,
            1.9159011840820312,
            0.14019624888896942,
            3.065170732876491e-30,
            0.15096834301948547,
            -0.14699122309684753,
            3.065170732876491e-30,
            -0.8094592094421387,
            0.8455517888069153,
            -0.3425571620464325,
            0.2366439253091812
          ]
        },
        {
          "mixing": {
            "diversity": 0.2,
            "indie_author": 0.0,
            "premium_seller": 0.2,
            "publisher": 0.2,
            "reader": 0.4
          },
          "weights": [
            -0.1365284025669098,
            0.2827761173248291,
            -0.21713373064994812,
            0.16263332962989807,
            -0.22101454436779022,
            0.16238029301166534,
            -0.13496460020542145,
            0.7741541266441345,
            -0.10730822384357452,
            -0.3861777186393738,
            0.7927010655403137,
            0.21536660194396973,
            -0.06178566813468933,
            -0.37813079357147217,
            0.3734261989593506,
            -0.19206736981868744,
            -0.1473761796951294,
            -0.035855114459991455,
            3.065170732876491e-30,
            0.08907739073038101,
            -0.45292726159095764,
            0.5991004705429077,
            1.1122338771820068,
            0.4739523231983185,
            3.065170732876491e-30,
            -0.05097251012921333,
            0.055001966655254364,
            -0.20987902581691742,
            -0.2932053208351135,
            0.5073667764663696,
            0.03649197891354561,
            0.3964076638221741
          ]
        },
        {
          "mixing": {
            "diversity": 0.2,
            "indie_author": 0.0,
            "premium_seller": 0.2,
            "publisher": 0.4,
            "reader": 0.2
          },
          "weights": [
            0.5093840956687927,
            0.3140680491924286,
            0.10458452254533768,
            -4.016683669760823e-05,
            -0.13350369036197662,
            0.21087102591991425,
            0.2026737928390503,
            0.21521639823913574,
            -0.5795662999153137,
            0.010079119354486465,
            0.23599882423877716,
            0.04046640545129776,
            0.0189973134547472,
            0.019619062542915344,
            0.19237644970417023,
            -0.3363005518913269,
            -0.11878065019845963,
            0.277759313583374,
            3.065170732876491e-30,
            -0.2694113850593567,
            -0.3599315881729126,
            0.17926904559135437,
            0.605046272277832,
            0.45014432072639465,
            3.065170732876491e-30,
            -0.1937747299671173,
            0.19937412440776825,
            -0.14843852818012238,
            -0.15812133252620697,
            0.3164738416671753,
            -0.09495958685874939,
            -0.1736360341310501
          ]
        },
        {
          "mixing": {
            "diversity": 0.2,
            "indie_author": 0.0,
            "premium_seller": 0.2,
            "publisher": 0.6,
            "reader": 0.0
          },
          "weights": [
            1.068170189857483,
            0.20829451084136963,
            0.5256516337394714,
            0.07605110853910446,
            0.10842140018939972,
            -0.2864062488079071,
            -0.00048624095506966114,
            0.13878397643566132,
            0.08471624553203583,
            -0.05183808505535126,
            0.033493541181087494,
            0.042356349527835846,
            -0.3360536992549896,
            -0.5946177244186401,
            -0.014957464300096035,
            -0.2939949929714203,
            -0.05663545802235603,
            0.046130504459142685,
            -0.08497932553291321,
            0.13516560196876526,
            -0.19187088310718536,
            0.053649116307497025,
            0.14084458351135254,
            0.04965192452073097,
            3.065170732876491e-30,
            -0.5286043882369995,
            0.5290243625640869,
            3.065170732876491e-30,
            -0.15546689927577972,
            0.20026646554470062,
            -0.11953187733888626,
            0.243531733751297
          ]
        },
        {
          "mixing": {
            "diversity": 0.2,
            "indie_author": 0.0,
            "premium_seller": 0.4,
            "publisher": 0.0,
            "reader": 0.4
          },
          "weights": [
            -0.7842353582382202,
            -0.08821369707584381,
            -0.4382208287715912,
            0.05275661498308182,
            0.07253772020339966,
            0.2724720537662506,
            0.008234318345785141,
            0.5977779030799866,
            0.38914060592651367,
            -0.05402572080492973,
            0.3345276713371277,
            0.3369691073894501,
            0.009374800138175488,
            -0.07324613630771637,
            0.7519813776016235,
            0.049285292625427246,
            0.1267571598291397,
            0.08198133856058121,
            -0.03694472089409828,
            0.1670096218585968,
            -0.8698113560676575,
            0.7695582509040833,
            1.8751493692398071,
            0.4915260076522827,
            3.065170732876491e-30,
            0.1860184222459793,
            -0.18458446860313416,
            -0.07249129563570023,
            -0.8229081034660339,
            0.9215372204780579,
            -0.06839273869991302,
            0.28079697489738464
          ]
        },
        {
          "mixing": {
            "diversity": 0.2,
            "indie_author": 0.0,
            "premium_seller": 0.4,
            "publisher": 0.2,
            "reader": 0.2
          },
          "weights": [
            -0.026893552392721176,
            0.033391501754522324,
            -0.11351431161165237,
            -0.20006830990314484,
            -0.1594499945640564,
            0.2590985596179962,
            0.052349627017974854,
            0.22030918300151825,
            -0.05897807329893112,
            -0.25714001059532166,
            -0.05559078976511955,
            -0.18257921934127808,
            -0.009974747896194458,
            0.10346243530511856,
            0.3254121243953705,
            -0.2034439742565155,
            3.065170732876491e-30,
            0.23002968728542328,
            3.065170732876491e-30,
            -0.1443653106689453,
            -0.9266573786735535,
            0.013554427772760391,
            0.6671994924545288,
            0.6080503463745117,
            3.065170732876491e-30,
            -0.3690433204174042,
            0.37057048082351685,
            -0.07165098190307617,
            -0.3956882655620575,
            0.4890260398387909,
            -0.2203315645456314,
            0.08736836165189743
          ]
        },
        {
          "mixing": {
            "diversity": 0.2,
            "indie_author": 0.0,
            "premium_seller": 0.4,
            "publisher": 0.4,
            "reader": 0.0
          },
          "weights": [
            0.406820148229599,
            -0.07408970594406128,
            0.19951613247394562,
            -0.05537424236536026,
            0.08181045949459076,
            -0.03597278147935867,
            0.07129134982824326,
            -0.336605966091156,
            -0.07729136198759079,
            -0.6338064670562744,
            0.16565577685832977,
            0.02210937812924385,
            0.1680939495563507,
            -0.06722529232501984,
            0.4875708520412445,
            3.065170732876491e-30,
            3.065170732876491e-30,
            0.07650885730981827,
            3.065170732876491e-30,
            0.2252759337425232,
            -0.6467705368995667,
            -0.21783480048179626,
            0.28514155745506287,
            0.1626623570919037,
            3.065170732876491e-30,
            -0.1603192389011383,
            0.1648208647966385,
            3.065170732876491e-30,
            -0.26769861578941345,
            0.310549795627594,
            0.0033312232699245214,
            0.2789481580257416
          ]
        },
        {
          "mixing": {
            "diversity": 0.2,
            "indie_author": 0.0,
            "premium_seller": 0.6,
            "publisher": 0.0,
            "reader": 0.2
          },
          "weights": [
            -0.5705999135971069,
            -0.0696033462882042,
            -0.07123012095689774,
            0.25326234102249146,
            -0.17732563614845276,
            -0.020555000752210617,
            0.15351705253124237,
            -0.1497689038515091,
            0.7500600218772888,
            -0.2645999789237976,
            0.28738167881965637,
            0.48540642857551575,
            0.2644897997379303,
            0.12738555669784546,
            0.3191295564174652,
            0.018127884715795517,
            -0.24271738529205322,
            0.02101922780275345,
            3.065170732876491e-30,
            -0.02862587757408619,
            -1.4599497318267822,
            0.31860417127609253,
            1.399558424949646,
            0.6534431576728821,
            3.065170732876491e-30,
            0.09362304210662842,
            -0.09312038868665695,
            -0.0686938688158989,
            -0.7637752890586853,
            0.8671685457229614,
            -0.32031795382499695,
            0.46119168400764465
          ]
        },
        {
          "mixing": {
            "diversity": 0.2,
            "indie_author": 0.0,
            "premium_seller": 0.6,
            "publisher": 0.2,
            "reader": 0.0
          },
          "weights": [
            0.16257059574127197,
            0.028575951233506203,
            0.13941314816474915,
            0.18317610025405884,
            -0.005180932115763426,
            0.05532393977046013,
            0.29983440041542053,
            -0.2549179494380951,
            0.3568711578845978,
            -0.09638345241546631,
            -0.1402246505022049,
            0.3690791428089142,
            -0.06022915616631508,
            -0.3770080506801605,
            0.3634221851825714,
            -0.3019678592681885,
            -0.07682293653488159,
            3.065170732876491e-30,
            -0.028293265029788017,
            0.21313665807247162,
            -1.424000859260559,
            -0.4951862096786499,
            0.38921791315078735,
            0.3245444893836975,
            3.065170732876491e-30,
            -0.13950581848621368,
            0.14067032933235168,
            -0.14655478298664093,
            -0.3491291105747223,
            0.49821987748146057,
            -0.3950706422328949,
            0.2533065974712372
          ]
        },
        {
          "mixing": {
            "diversity": 0.2,
            "indie_author": 0.0,
            "premium_seller": 0.8,
            "publisher": 0.0,
            "reader": 0.0
          },
          "weights": [
            -0.45683249831199646,
            -0.4544832706451416,
            0.22140638530254364,
            0.10833337903022766,
            -0.04233045503497124,
            -0.14558811485767365,
            -0.1551121324300766,
            0.6886878609657288,
            0.4635581374168396,
            -0.44634848833084106,
            0.18328076601028442,
            0.5857828259468079,
            3.065170732876491e-30,
            0.02212466485798359,
            0.21756313741207123,
            -0.5168473124504089,
            3.065170732876491e-30,
            0.14001590013504028,
            -0.028444252908229828,
            -0.08581630885601044,
            -2.099900484085083,
            -0.24732929468154907,
            0.7181819081306458,
            0.7954177260398865,
            3.065170732876491e-30,
            -0.1378563940525055,
            0.1384907066822052,
            3.065170732876491e-30,
            -0.674041211605072,
            0.7020270824432373,
            -0.46014195680618286,
            0.8669467568397522
          ]
        },
        {
          "mixing": {
            "diversity": 0.2,
            "indie_author": 0.2,
            "premium_seller": 0.0,
            "publisher": 0.0,
            "reader": 0.6
          },
          "weights": [
            -1.0751287937164307,
            -0.12155406922101974,
            -0.9549601078033447,
            0.204934224486351,
            0.09273657947778702,
            0.3288930654525757,
            0.28496700525283813,
            0.09574432671070099,
            0.09840647876262665,
            -0.011180962435901165,
            0.6625648140907288,
            0.7088398933410645,
            0.15296994149684906,
            0.30692434310913086,
            0.3554812967777252,
            -0.09662546962499619,
            3.065170732876491e-30,
            0.32310590147972107,
            0.005753557663410902,
            0.28673821687698364,
            0.10744646191596985,
            1.2550989389419556,
            1.672974705696106,
            -0.094080351293087,
            3.065170732876491e-30,
            0.06630206108093262,
            -0.06438952684402466,
            3.065170732876491e-30,
            -0.6650725603103638,
            0.7060917019844055,
            -0.1405552476644516,
            0.018851332366466522
          ]
        },
        {
          "mixing": {
            "diversity": 0.2,
            "indie_author": 0.2,
            "premium_seller": 0.0,
            "publisher": 0.2,
            "reader": 0.4
          },
          "weights": [
            -0.2317170351743698,
            0.0582255981862545,
            -0.19251219928264618,
            0.508289635181427,
            -0.12063651531934738,
            0.1377832442522049,
            0.4155360460281372,
            0.6836833953857422,
            -0.2024221271276474,
            -0.4932738244533539,
            -0.051642004400491714,
            0.3850674629211426,
            -0.09127925336360931,
            0.01636449806392193,
            0.3072044253349304,
            -0.27666735649108887,
            0.030610667541623116,
            0.13444407284259796,
            0.2656812071800232,
            0.055391713976860046,
            0.03239968791604042,
            0.666785717010498,
            0.9809584021568298,
            -0.13782916963100433,
            3.065170732876491e-30,
            -0.2508927583694458,
            0.2565959393978119,
            0.17020517587661743,
            -0.5070800185203552,
            0.42057740688323975,
            0.2659548223018646,
            0.1579510122537613
          ]
        },
        {
          "mixing": {
            "diversity": 0.2,
            "indie_author": 0.2,
            "premium_seller": 0.0,
            "publisher": 0.4,
            "reader": 0.2
          },
          "weights": [
            0.2577170133590698,
            0.011954930610954762,
            -0.08289235830307007,
            0.2590027153491974,
            0.05719861388206482,
            0.6570886373519897,
            -0.025404173880815506,
            0.17579300701618195,
            0.2801620066165924,
            -0.22148562967777252,
            -0.26891016960144043,
            0.21361619234085083,
            -0.31837761402130127,
            -0.0263911634683609,
            0.044019073247909546,
            -0.05236123502254486,
            3.065170732876491e-30,
            0.16922517120838165,
            -0.1376773715019226,
            0.15385982394218445,
            -0.09869162738323212,
            0.34940022230148315,
            0.350698858499527,
            0.29521310329437256,
            3.065170732876491e-30,
            -0.11268045008182526,
            0.11776736378669739,
            3.065170732876491e-30,
            -0.18007470667362213,
            0.2239808738231659,
            -0.14042556285858154,
            -0.053238097578287125
          ]
        },
        {
          "mixing": {
            "diversity": 0.2,
            "indie_author": 0.2,
            "premium_seller": 0.0,
            "publisher": 0.6,
            "reader": 0.0
          },
          "weights": [
            0.6833572387695312,
            -0.12292832881212234,
            0.12346199154853821,
            0.4040665626525879,
            0.31048426032066345,
            -0.22658780217170715,
            -0.20974741876125336,
            0.17845527827739716,
            0.28839829564094543,
            0.1386587917804718,
            -0.27523794770240784,
            -0.13922764360904694,
            3.065170732876491e-30,
            0.1463170349597931,
            -0.22523409128189087,
            -0.10880459100008011,
            3.065170732876491e-30,
            -0.22137312591075897,
            3.065170732876491e-30,
            -0.5025433301925659,
            0.01346721313893795,
            -0.03238781541585922,
            0.0024397014640271664,
            -0.03939194232225418,
            3.065170732876491e-30,
            0.007276779040694237,
            -0.0008185155456885695,
            3.065170732876491e-30,
            0.011641601100564003,
            0.036000464111566544,
            -0.17643074691295624,
            0.0259467251598835
          ]
        },
        {
          "mixing": {
            "diversity": 0.2,
            "indie_author": 0.2,
            "premium_seller": 0.2,
            "publisher": 0.0,
            "reader": 0.4
          },
          "weights": [
            -0.8882535099983215,
            -0.09281168133020401,
            -0.7774529457092285,
            0.19223345816135406,
            0.1889323890209198,
            0.3091331422328949,
            -0.09013073891401291,
            0.9044801592826843,
            0.28449374437332153,
            0.5360486507415771,
            0.7204245924949646,
            0.2828998267650604,
            -0.2620334327220917,
            0.28939345479011536,
            -0.06919784098863602,
            0.025323253124952316,
            0.1252317875623703,
            3.065170732876491e-30,
            -0.08839365094900131,
            0.1363285332918167,
            -0.40704935789108276,
            0.7093842625617981,
            1.4094295501708984,
            0.25014549493789673,
            3.065170732876491e-30,
            0.14976391196250916,
            -0.14776580035686493,
            -0.07934670150279999,
            -0.609245240688324,
            0.7282426953315735,
            -0.3402705192565918,
            0.21747340261936188
          ]
        },
        {
          "mixing": {
            "diversity": 0.2,
            "indie_author": 0.2,
            "premium_seller": 0.2,
            "publisher": 0.2,
            "reader": 0.2
          },
          "weights": [
            -0.36880168318748474,
            -0.1943330466747284,
            -0.4055463671684265,
            0.06907189637422562,
