{
  "config": {
    "simplex_resolution": 5,
    "n_mixing_points": 21,
    "n_pairs_per_model": 2000,
    "diversity_weights": [
      0.0,
      0.05,
      0.1,
      0.15,
      0.2,
      0.25,
      0.3,
      0.35,
      0.4,
      0.45,
      0.5,
      0.55,
      0.6,
      0.65,
      0.7,
      0.75,
      0.8,
      0.85,
      0.9,
      0.95,
      1.0
    ],
    "top_k": 10
  },
  "mind-small": {
    "weight_vectors": {
      "per_stakeholder": {
        "advertiser": [
          -3.265186071395874,
          -0.6997867226600647,
          -1.0092228651046753,
          1.4206364154815674,
          1.4466190338134766,
          1.9409067630767822,
          -0.6833899021148682,
          -0.1411198228597641,
          -0.7946731448173523,
          1.0675674676895142,
          0.9227589964866638,
          1.2172092199325562,
          1.1073205471038818,
          1.250490665435791,
          -0.03834293782711029,
          3.065170732876491e-30,
          3.065170732876491e-30,
          -0.2376984804868698,
          0.4527920186519623,
          -1.8542957305908203,
          -1.6424165964126587,
          -0.1411198228597641,
          0.5329346060752869,
          0.10351073741912842,
          -0.24957972764968872,
          0.3281401991844177,
          -0.10645603388547897,
          0.7895231246948242,
          -0.24938425421714783,
          0.5235961675643921,
          1.0419999361038208,
          -0.17021913826465607,
          0.12182091921567917,
          -0.28320425748825073,
          -0.801696240901947
        ],
        "civic_diversity": [
          -3.0983192920684814,
          -2.2574164867401123,
          -0.5489071607589722,
          0.10429402440786362,
          0.20359785854816437,
          0.36245909333229065,
          0.7005859017372131,
          0.5146108269691467,
          1.3566349744796753,
          0.9263904094696045,
          1.3150478601455688,
          1.2622246742248535,
          1.5742233991622925,
          1.5988930463790894,
          0.25282081961631775,
          3.065170732876491e-30,
          3.065170732876491e-30,
          -0.7020936012268066,
          -0.17568439245224,
          -0.4024979770183563,
          -0.5224950909614563,
          0.5146108269691467,
          0.1287219524383545,
          -0.20494486391544342,
          -0.463329017162323,
          -0.09381724148988724,
          0.2654084861278534,
          0.16742506623268127,
          -0.004137495532631874,
          0.3820216953754425,
          0.5856818556785583,
          0.18579231202602386,
          0.14841963350772858,
          -0.08015710860490799,
          -0.5194041728973389
        ],
        "journalist": [
          1.6633163690567017,
          0.41360586881637573,
          0.5804327726364136,
          0.35373079776763916,
          0.1691463142633438,
          0.5755698084831238,
          -1.9182474613189697,
          -0.14125894010066986,
          0.5198721885681152,
          0.4237540066242218,
          -1.4940435886383057,
          -1.2755926847457886,
          -0.9836658835411072,
          0.5126357078552246,
          -0.3730192482471466,
          3.065170732876491e-30,
          3.065170732876491e-30,
          2.580764055252075,
          -0.6231846213340759,
          1.8344262838363647,
          -1.7456268072128296,
          -0.14125894010066986,
          -0.5347400307655334,
          -0.6591533422470093,
          1.5660606622695923,
          -0.5063327550888062,
          -1.2525227069854736,
          -0.3357084095478058,
          1.591551423072815,
          -0.4386979937553406,
          -0.3787996172904968,
          2.4142425060272217,
          2.947350263595581,
          2.8030128479003906,
          1.1531763076782227
        ],
        "publisher": [
          3.222405433654785,
          2.6318061351776123,
          0.3462301790714264,
          -0.24466964602470398,
          -0.42431819438934326,
          -0.049801334738731384,
          -0.6279317736625671,
          -0.6278635859489441,
          -0.6999450325965881,
          -1.1154882907867432,
          -1.2969034910202026,
          -1.3888872861862183,
          -1.3391588926315308,
          -1.5830365419387817,
          -0.5437049269676208,
          3.065170732876491e-30,
          3.065170732876491e-30,
          0.04894175007939339,
          -0.0642559751868248,
          0.024143105372786522,
          0.053806476294994354,
          -0.6278635859489441,
          0.21863648295402527,
          -0.12455062568187714,
          -0.0019325112225487828,
          0.3371676206588745,
          -0.04634691774845123,
          0.10119781643152237,
          0.38234591484069824,
          0.35053399205207825,
          -0.0036844382993876934,
          0.2516891062259674,
          0.0792977437376976,
          0.06478016078472137,
          0.10261517763137817
        ],
        "reader": [
          0.6135902404785156,
          1.4878060817718506,
          -0.652855634689331,
          -1.4517409801483154,
          -1.3918794393539429,
          0.13674888014793396,
          0.5203887224197388,
          0.7571398019790649,
          -0.49419093132019043,
          -1.6000863313674927,
          1.6289993524551392,
          1.6975387334823608,
          -0.851664662361145,
          -0.4901932179927826,
          -0.18899005651474,
          3.065170732876491e-30,
          3.065170732876491e-30,
          -0.13523250818252563,
          -0.08070247620344162,
          0.2694139778614044,
          0.027114994823932648,
          0.7571398019790649,
          -0.10876429826021194,
          -0.1803731918334961,
          -0.3528776168823242,
          0.29205167293548584,
          0.17473801970481873,
          -0.05305821821093559,
          -0.17719319462776184,
          0.08425973355770111,
          -0.2530100345611572,
          2.993880271911621,
          3.370215892791748,
          4.108059883117676,
          0.07910176366567612
        ]
      },
      "scalarized": [
        {
          "mixing": {
            "advertiser": 0.0,
            "civic_diversity": 0.0,
            "journalist": 0.0,
            "publisher": 0.2,
            "reader": 0.8
          },
          "weights": [
            1.2559438943862915,
            1.5944933891296387,
            -0.32749447226524353,
            -1.0960099697113037,
            -1.1448427438735962,
            0.03143163397908211,
            0.23063145577907562,
            0.40277814865112305,
            -0.4065059423446655,
            -1.4104169607162476,
            1.0870684385299683,
            0.8024230599403381,
            -0.919829785823822,
            -0.5790069103240967,
            -0.3546335995197296,
            3.065170732876491e-30,
            3.065170732876491e-30,
            -0.2386179268360138,
            -0.19402362406253815,
            0.20228037238121033,
            0.02089107409119606,
            0.40277814865112305,
            0.5564863085746765,
            -0.3287172317504883,
            -0.2285820096731186,
            0.4724298119544983,
            0.1673651486635208,
            -0.13059589266777039,
            -0.6046930551528931,
            0.09565828740596771,
            -0.0004965244443155825,
            1.7250123023986816,
            2.0251786708831787,
            2.3259024620056152,
            -0.06427817791700363
          ]
        },
        {
          "mixing": {
            "advertiser": 0.0,
            "civic_diversity": 0.0,
            "journalist": 0.0,
            "publisher": 0.4,
            "reader": 0.6
          },
          "weights": [
            1.4067362546920776,
            1.513976812362671,
            -0.04617191106081009,
            -0.7332019209861755,
            -0.5261573195457458,
            -0.07889745384454727,
            -0.1072596088051796,
            0.07731631398200989,
            -0.37742048501968384,
            -1.2940198183059692,
            0.17228183150291443,
            -0.0066725327633321285,
            -0.5206054449081421,
            -0.28779008984565735,
            -0.25492098927497864,
            3.065170732876491e-30,
            3.065170732876491e-30,
            -0.020846696570515633,
            -0.11825520545244217,
            0.13907423615455627,
            0.25951164960861206,
            0.07731631398200989,
            0.44049596786499023,
            0.27752235531806946,
            -0.2290250062942505,
            -0.007337823044508696,
            0.10384192317724228,
            0.07715325802564621,
            -0.013847132213413715,
            0.2445414662361145,
            -0.652919352054596,
            1.3434146642684937,
            1.495955228805542,
            1.9846967458724976,
            0.23948653042316437
          ]
        },
        {
          "mixing": {
            "advertiser": 0.0,
            "civic_diversity": 0.0,
            "journalist": 0.0,
            "publisher": 0.6,
            "reader": 0.4
          },
          "weights": [
            1.8277333974838257,
            1.7347447872161865,
            0.035451583564281464,
            -0.7399453520774841,
            -0.4512130916118622,
            0.050374168902635574,
            0.2008112221956253,
            0.02401447296142578,
            -0.31858858466148376,
            -1.4016306400299072,
            -0.1568162441253662,
            -0.1979893147945404,
            -0.5709351897239685,
            -1.158253788948059,
            -0.5305296778678894,
            3.065170732876491e-30,
            3.065170732876491e-30,
            0.08677687495946884,
            -0.017232807353138924,
            0.352741003036499,
            0.101443812251091,
            0.02401447296142578,
            0.0673411563038826,
            -0.1742420643568039,
            -0.061498820781707764,
            0.2749686539173126,
            -0.3571600019931793,
            0.36457833647727966,
            -0.17407502233982086,
            -0.16213436424732208,
            -0.17051345109939575,
            0.7540029883384705,
            1.1128133535385132,
            1.2417302131652832,
            -0.014433315023779869
          ]
        },
        {
          "mixing": {
            "advertiser": 0.0,
            "civic_diversity": 0.0,
            "journalist": 0.0,
            "publisher": 0.8,
            "reader": 0.2
          },
          "weights": [
            2.3118908405303955,
            1.962052822113037,
            0.31077972054481506,
            -0.3745141327381134,
            -0.7667767405509949,
            -0.12967579066753387,
            -0.15573902428150177,
            -0.11132721602916718,
            -0.3554263412952423,
            -1.0252615213394165,
            -0.8313257098197937,
            -1.016769528388977,
            -0.8461892008781433,
            -1.113622784614563,
            -0.09492292255163193,
            3.065170732876491e-30,
            3.065170732876491e-30,
            0.022231094539165497,
            -0.0041148061864078045,
            -0.1224803552031517,
            0.24609041213989258,
            -0.11132721602916718,
            0.12971806526184082,
            -0.5689883828163147,
            -0.3115346133708954,
            0.35503923892974854,
            -0.18055979907512665,
            0.24844087660312653,
            0.26834461092948914,
            0.34006696939468384,
            0.06857433915138245,
            0.6365025043487549,
            0.613222062587738,
            0.7210779786109924,
            0.05898129940032959
          ]
        },
        {
          "mixing": {
            "advertiser": 0.0,
            "civic_diversity": 0.0,
            "journalist": 0.2,
            "publisher": 0.0,
            "reader": 0.8
          },
          "weights": [
            0.9117048382759094,
            1.3781689405441284,
            -0.321103036403656,
            -1.0247540473937988,
            -0.6244684457778931,
            -0.15532995760440826,
            0.1794973909854889,
            0.6090551018714905,
            -0.44750040769577026,
            -1.3428118228912354,
            1.1209014654159546,
            0.6445521712303162,
            -0.9228333830833435,
            -0.14518672227859497,
            -0.25514164566993713,
            3.065170732876491e-30,
            3.065170732876491e-30,
            0.20898166298866272,
            -0.23485364019870758,
            0.41344499588012695,
            -0.41630303859710693,
            0.6090551018714905,
            -0.2700982987880707,
            -0.4518648684024811,
            0.1070454940199852,
            0.24566848576068878,
            0.17355340719223022,
            0.05974392965435982,
            0.25175824761390686,
            -0.32831645011901855,
            -0.3280024230480194,
            2.4681904315948486,
            2.609893798828125,
            3.198897123336792,
            -0.02841935120522976
          ]
        },
        {
          "mixing": {
            "advertiser": 0.0,
            "civic_diversity": 0.0,
            "journalist": 0.2,
            "publisher": 0.2,
            "reader": 0.6
          },
          "weights": [
            0.9435515999794006,
            1.312446117401123,
            -0.24040786921977997,
            -0.40923893451690674,
            -0.7081329822540283,
            0.1008407324552536,
            0.16219693422317505,
            0.06322003901004791,
            -0.1960657685995102,
            -1.1700427532196045,
            0.4999641180038452,
            0.0003853121888823807,
            -0.8249662518501282,
            -0.03347451612353325,
            -0.17807678878307343,
            3.065170732876491e-30,
            3.065170732876491e-30,
            0.7267119288444519,
            -0.49209365248680115,
            0.458574503660202,
            -0.36843085289001465,
            0.06322003901004791,
            0.007968226447701454,
            0.20586282014846802,
            0.3519646227359772,
            0.059550706297159195,
            -0.11566520482301712,
            -0.39236754179000854,
            0.5113034844398499,
            -0.4703785479068756,
            -0.2631225287914276,
            1.8017910718917847,
            1.804992437362671,
            1.8448553085327148,
            0.1714797168970108
          ]
        },
        {
          "mixing": {
            "advertiser": 0.0,
            "civic_diversity": 0.0,
            "journalist": 0.2,
            "publisher": 0.4,
            "reader": 0.4
          },
          "weights": [
            1.6306073665618896,
            1.245239496231079,
            0.25659704208374023,
            -0.7325249314308167,
            -0.6138705015182495,
            0.502304196357727,
            -0.302479088306427,
            -0.2555355131626129,
            -0.3614596426486969,
            -0.7790584564208984,
            -0.4280608892440796,
            0.32014214992523193,
            -1.04154634475708,
            -0.2776043117046356,
            -0.35018810629844666,
            3.065170732876491e-30,
            3.065170732876491e-30,
            0.2575577199459076,
            -0.09509284049272537,
            0.05108651891350746,
            -0.18846283853054047,
            -0.2555355131626129,
            -0.14361324906349182,
            -0.16381973028182983,
            0.0787389874458313,
            0.5856645703315735,
            -0.03351252153515816,
            0.1586104780435562,
            0.34859633445739746,
            0.06025001034140587,
            -0.2190842628479004,
            1.295343041419983,
            1.019387125968933,
            1.9913443326950073,
            0.15273432433605194
          ]
        },
        {
          "mixing": {
            "advertiser": 0.0,
            "civic_diversity": 0.0,
            "journalist": 0.2,
            "publisher": 0.6,
            "reader": 0.2
          },
          "weights": [
            2.0895094871520996,
            1.7174216508865356,
            0.12376249581575394,
            0.3179839253425598,
            -0.4890981614589691,
            -0.038321591913700104,
            -0.48092398047447205,
            -0.013975969515740871,
            -0.7446494698524475,
            -0.6671800017356873,
            -0.9579923152923584,
            -0.590341329574585,
            -0.8871297836303711,
            -1.0332773923873901,
            -0.27337872982025146,
            3.065170732876491e-30,
            3.065170732876491e-30,
            0.37592098116874695,
            -0.090361088514328,
            0.3494930565357208,
            -0.4103955924510956,
            -0.013975969515740871,
            0.15396776795387268,
            -0.28338420391082764,
            0.21060848236083984,
            0.09322607517242432,
            -0.295754611492157,
            -0.3060823380947113,
            0.5074210166931152,
            0.24486179649829865,
            -0.09553754329681396,
            0.9548292756080627,
            1.095935344696045,
            0.7491311430931091,
            0.19787834584712982
          ]
        },
        {
          "mixing": {
            "advertiser": 0.0,
            "civic_diversity": 0.0,
            "journalist": 0.2,
            "publisher": 0.8,
            "reader": 0.0
          },
          "weights": [
            2.503685474395752,
            2.0083916187286377,
            0.4301876127719879,
            -0.25433990359306335,
            0.25401070713996887,
            0.12261001020669937,
            -0.8337447643280029,
            -0.3836272656917572,
            -0.3785380721092224,
            -0.708034098148346,
            -1.5357130765914917,
            -1.5749361515045166,
            -0.9096518754959106,
            -1.141058087348938,
            -0.030249234288930893,
            3.065170732876491e-30,
            3.065170732876491e-30,
            0.4296954870223999,
            0.07560338824987411,
            0.2719806134700775,
            -0.2647740840911865,
            -0.3836272656917572,
            -0.22527575492858887,
            -0.24365514516830444,
            0.17124632000923157,
            0.5494254231452942,
            -0.600871205329895,
            -0.08181443065404892,
            0.596393346786499,
            0.383574515581131,
            -0.260129451751709,
            0.40812692046165466,
            0.6335042119026184,
            0.4293076992034912,
            0.17330527305603027
          ]
        },
        {
          "mixing": {
            "advertiser": 0.0,
            "civic_diversity": 0.0,
            "journalist": 0.4,
            "publisher": 0.0,
            "reader": 0.6
          },
          "weights": [
            0.854908287525177,
            1.055112361907959,
            -0.28250256180763245,
            -0.8332619667053223,
            -0.7767093777656555,
            -0.13905756175518036,
            -0.31377512216567993,
            0.5497340559959412,
            -0.18765340745449066,
            -0.292459636926651,
            -0.09286275506019592,
            0.6025072336196899,
            -0.6005021333694458,
            0.1825547069311142,
            -0.07440433651208878,
            3.065170732876491e-30,
            3.065170732876491e-30,
            0.619590163230896,
            -0.4276413917541504,
            0.6964845061302185,
            -0.4849245548248291,
            0.5497340559959412,
            0.09650221467018127,
            -0.3542270064353943,
            0.24129734933376312,
            -0.020380673930048943,
            -0.5619376301765442,
            -0.20617243647575378,
            0.6620305776596069,
            -0.22090129554271698,
            -0.2405073344707489,
            2.4928579330444336,
            2.349741220474243,
            3.136090040206909,
            0.2516827881336212
          ]
        },
        {
          "mixing": {
            "advertiser": 0.0,
            "civic_diversity": 0.0,
            "journalist": 0.4,
            "publisher": 0.2,
            "reader": 0.4
          },
          "weights": [
            1.3131804466247559,
            1.0585192441940308,
            0.36711183190345764,
            -0.3472110331058502,
            -0.3571961224079132,
            0.1014929860830307,
            -0.5293641686439514,
            0.1457187980413437,
            -0.4508967399597168,
            -0.9755532741546631,
            -0.021411659196019173,
            -0.17223772406578064,
            -0.8267423510551453,
            0.08031757920980453,
            -0.2008490264415741,
            3.065170732876491e-30,
            3.065170732876491e-30,
            0.6872899532318115,
            -0.023065220564603806,
            0.4411233365535736,
            -0.4164840579032898,
            0.1457187980413437,
            -0.10695675760507584,
            -0.356884628534317,
            0.17806078493595123,
            -0.34280091524124146,
            -0.6179752945899963,
            -0.015445909462869167,
            0.6211942434310913,
            0.34845098853111267,
            -0.12526866793632507,
            1.402775526046753,
            1.5592063665390015,
            1.8555800914764404,
            0.243439719080925
          ]
        },
        {
          "mixing": {
            "advertiser": 0.0,
            "civic_diversity": 0.0,
            "journalist": 0.4,
            "publisher": 0.4,
            "reader": 0.2
          },
          "weights": [
            1.5680280923843384,
            1.2385176420211792,
            0.5777014493942261,
            -0.4171271026134491,
            -0.4121284782886505,
            0.45176422595977783,
            -0.4701904356479645,
            -0.0010884655639529228,
            0.35012397170066833,
            -0.7296876907348633,
            -0.9633743762969971,
            -0.6500329375267029,
            -0.8356370329856873,
            -0.6674211621284485,
            -0.40675878524780273,
            3.065170732876491e-30,
            3.065170732876491e-30,
            0.7057301998138428,
            -0.26158368587493896,
            0.996411144733429,
            -0.5617198944091797,
            -0.0010884655639529228,
            -0.35775941610336304,
            -0.4170970320701599,
            0.24371586740016937,
            0.13449111580848694,
            -0.37283095717430115,
            0.1703173816204071,
            0.47641655802726746,
            -0.075750932097435,
            -0.1532578021287918,
            1.0534329414367676,
            1.4274388551712036,
            1.400231122970581,
            0.35412007570266724
          ]
        },
        {
          "mixing": {
            "advertiser": 0.0,
            "civic_diversity": 0.0,
            "journalist": 0.4,
            "publisher": 0.6,
            "reader": 0.0
          },
          "weights": [
            2.1059374809265137,
            1.424799919128418,
            0.2903949022293091,
            0.1244683563709259,
            -0.12330587208271027,
            0.04956996068358421,
            -0.8578557968139648,
            -0.24502769112586975,
            -0.07209078222513199,
            -0.23651744425296783,
            -1.3549959659576416,
            -1.1387933492660522,
            -0.7741774320602417,
            -0.8545480966567993,
            -0.4036519527435303,
            3.065170732876491e-30,
            3.065170732876491e-30,
            0.6439124345779419,
            -0.2777179777622223,
            0.7722657918930054,
            -0.8433194756507874,
            -0.24502769112586975,
            0.07740870118141174,
            -0.4664733409881592,
            0.5759294629096985,
            -0.07450968772172928,
            -0.43462491035461426,
            -0.4633239209651947,
            1.1456447839736938,
            0.3106144070625305,
            -0.12001468241214752,
            0.970811128616333,
            0.9163140058517456,
            0.6698801517486572,
            0.4167058765888214
          ]
        },
        {
          "mixing": {
            "advertiser": 0.0,
            "civic_diversity": 0.0,
            "journalist": 0.6,
            "publisher": 0.0,
            "reader": 0.4
          },
          "weights": [
            1.0536062717437744,
            0.8508830070495605,
            0.24737337231636047,
            -0.22105672955513,
            -0.45620378851890564,
            0.24829056859016418,
            -0.8511768579483032,
            0.135080486536026,
            0.13153906166553497,
            -0.43699800968170166,
            -0.15891504287719727,
            0.07134949415922165,
            -0.8182678818702698,
            -0.12922988831996918,
            -0.18811368942260742,
            3.065170732876491e-30,
            3.065170732876491e-30,
            0.8248022794723511,
            -0.27704527974128723,
            0.917193591594696,
            -0.9021204710006714,
            0.135080486536026,
            -0.07300016283988953,
            -0.1684713512659073,
            0.4156559407711029,
            0.1665811538696289,
            -0.4399087131023407,
            -0.1816318780183792,
            0.6507692337036133,
            -0.2976755201816559,
            -0.0626911073923111,
            1.962038516998291,
            2.069237470626831,
            2.512538194656372,
            0.5590512752532959
          ]
        },
        {
          "mixing": {
            "advertiser": 0.0,
            "civic_diversity": 0.0,
            "journalist": 0.6,
            "publisher": 0.2,
            "reader": 0.2
          },
          "weights": [
            1.5902289152145386,
            0.8876757025718689,
            0.32690101861953735,
            -0.21482694149017334,
            -0.5033263564109802,
            0.4668169319629669,
            -0.7238303422927856,
            -0.18724994361400604,
            0.09662158787250519,
            -0.4834786057472229,
            -0.4690864682197571,
            -0.8486746549606323,
            -0.5478384494781494,
            -0.1343027800321579,
            -0.5208373069763184,
            3.065170732876491e-30,
            3.065170732876491e-30,
            0.8979313373565674,
            -0.35221153497695923,
            0.5280537605285645,
            -0.9244081377983093,
            -0.18724994361400604,
            -0.1784580796957016,
            -0.6134383678436279,
            0.7313282489776611,
            0.1489250808954239,
            -0.4270685017108917,
            -0.006540535483509302,
            0.6898502707481384,
            -0.22357113659381866,
            0.42993539571762085,
            1.7708745002746582,
            1.8435132503509521,
            2.1326305866241455,
            0.4379609227180481
          ]
        },
        {
          "mixing": {
            "advertiser": 0.0,
            "civic_diversity": 0.0,
            "journalist": 0.6,
            "publisher": 0.4,
            "reader": 0.0
          },
          "weights": [
            1.8399487733840942,
            1.0969231128692627,
            0.42347288131713867,
            0.12573498487472534,
            0.12387209385633469,
            0.41769516468048096,
            -1.0656447410583496,
            -0.18446145951747894,
            0.05997806414961815,
            -0.009199714288115501,
            -1.434288740158081,
            -0.985089898109436,
            -1.2933927774429321,
            -0.36151641607284546,
            -0.40322980284690857,
            3.065170732876491e-30,
            3.065170732876491e-30,
            1.2852336168289185,
            -0.5165709257125854,
            0.7440765500068665,
            -0.4876682758331299,
            -0.18446145951747894,
            -0.11124683916568756,
            -0.2596113681793213,
            0.8876180648803711,
            -0.12683723866939545,
            -0.8069599270820618,
            -0.599120020866394,
            1.1173806190490723,
            0.19351954758167267,
            -0.44155874848365784,
            0.8831495642662048,
            1.4085360765457153,
            1.4733668565750122,
            0.6754464507102966
          ]
        },
        {
          "mixing": {
            "advertiser": 0.0,
            "civic_diversity": 0.0,
            "journalist": 0.8,
            "publisher": 0.0,
            "reader": 0.2
          },
          "weights": [
            1.2787985801696777,
            0.5523836016654968,
            0.5161474347114563,
            -0.11569632589817047,
            -0.13488468527793884,
            0.17539070546627045,
            -1.1799163818359375,
            0.13995781540870667,
            -0.11385080963373184,
            0.16546329855918884,
            -0.27208206057548523,
            -0.7917633652687073,
            -0.821138322353363,
            0.04950990155339241,
            -0.21296706795692444,
            3.065170732876491e-30,
            3.065170732876491e-30,
            1.6907846927642822,
            -0.25015929341316223,
            1.124104380607605,
            -1.050878882408142,
            0.13995781540870667,
            -0.759670078754425,
            -0.5449721813201904,
            0.8171079158782959,
            -0.11566611379384995,
            -0.8025472164154053,
            -0.3470880389213562,
            1.0789278745651245,
            -0.06133897230029106,
            -0.31937482953071594,
            2.5891149044036865,
            2.3247692584991455,
            2.746049642562866,
            0.7306717038154602
          ]
        },
        {
          "mixing": {
            "advertiser": 0.0,
            "civic_diversity": 0.0,
            "journalist": 0.8,
            "publisher": 0.2,
            "reader": 0.0
          },
          "weights": [
            1.8009257316589355,
            0.6694320440292358,
            0.5548574924468994,
            0.43116864562034607,
            -0.00028063036734238267,
            0.11713773757219315,
            -1.432088017463684,
            -0.16150446236133575,
            0.22253172099590302,
            0.017545638605952263,
            -1.4583442211151123,
            -1.4325370788574219,
            -0.5479695796966553,
            -0.02020789496600628,
            -0.10906725376844406,
            3.065170732876491e-30,
            3.065170732876491e-30,
            1.5382379293441772,
            -0.6327157616615295,
            1.2319132089614868,
            -0.7067027688026428,
            -0.16150446236133575,
            -0.5433334708213806,
            -0.24882888793945312,
            0.9619894623756409,
            0.19593457877635956,
            -1.4654418230056763,
            -0.5947293639183044,
            1.255803108215332,
            -0.09553249925374985,
            -0.20200137794017792,
            1.7672679424285889,
            1.9158281087875366,
            1.9528822898864746,
            0.62809818983078
          ]
        },
        {
          "mixing": {
            "advertiser": 0.0,
            "civic_diversity": 0.2,
            "journalist": 0.0,
            "publisher": 0.0,
            "reader": 0.8
          },
          "weights": [
            -0.07884742319583893,
            0.4085947275161743,
            -0.62233567237854,
            -0.8118250370025635,
            -0.581367552280426,
            0.03551925718784332,
            0.24334478378295898,
            0.5180740356445312,
            -0.010192911140620708,
            -1.077283501625061,
            1.5992313623428345,
            1.250227451324463,
            -0.07950671762228012,
            -0.1349014788866043,
            -0.2640843391418457,
            3.065170732876491e-30,
            3.065170732876491e-30,
            -0.16038423776626587,
            -0.13749092817306519,
            0.13658244907855988,
            -0.3192140460014343,
            0.5180740356445312,
            0.001345717697404325,
            -0.15967883169651031,
            -0.22721773386001587,
            0.20497524738311768,
            0.5214159488677979,
            -0.062477435916662216,
            0.2293243259191513,
            -0.2479843944311142,
            -0.33101511001586914,
            1.609663963317871,
            1.8544918298721313,
            1.8801755905151367,
            -0.1795453131198883
          ]
        },
        {
          "mixing": {
            "advertiser": 0.0,
            "civic_diversity": 0.2,
            "journalist": 0.0,
            "publisher": 0.2,
            "reader": 0.6
          },
          "weights": [
            0.037198495119810104,
            0.6571037173271179,
            -0.2547350227832794,
            -0.4174630343914032,
            -0.6312069892883301,
            -0.013815324753522873,
            0.167928546667099,
            0.24702328443527222,
            -0.11982419341802597,
            -0.6932730674743652,
            0.5562870502471924,
            0.9365352392196655,
            -0.2791363298892975,
            0.18162931501865387,
            -0.1374903917312622,
            3.065170732876491e-30,
            3.065170732876491e-30,
            0.17693111300468445,
            -0.1847962588071823,
            0.14087939262390137,
            -0.1311478614807129,
            0.24702328443527222,
            -0.23793178796768188,
            -0.05956524610519409,
            0.11703182011842728,
            0.0727488100528717,
            0.03060588426887989,
            0.06909346580505371,
            0.2668355405330658,
            -0.4102574288845062,
            0.10093206912279129,
            1.0230023860931396,
            1.0549323558807373,
            1.3453627824783325,
            0.05874642729759216
          ]
        },
        {
          "mixing": {
            "advertiser": 0.0,
            "civic_diversity": 0.2,
            "journalist": 0.0,
            "publisher": 0.4,
            "reader": 0.4
          },
          "weights": [
            0.6166841983795166,
            0.9760906100273132,
            -0.1013990044593811,
            -0.3544737696647644,
            -0.9153470993041992,
            0.23819726705551147,
            0.18945838510990143,
            -0.028463343158364296,
            -0.10657834261655807,
            -1.1305903196334839,
            0.5931053757667542,
            0.4531771242618561,
            -0.41767868399620056,
            -0.35230159759521484,
            0.14850527048110962,
            3.065170732876491e-30,
            3.065170732876491e-30,
            -0.06789606809616089,
            -0.31609871983528137,
            -0.25839775800704956,
            -0.041313350200653076,
            -0.028463343158364296,
            0.4333168864250183,
            -0.24015915393829346,
            0.15789973735809326,
            0.2528633773326874,
            -0.2826961576938629,
            -0.11337302625179291,
            0.20182864367961884,
            0.1937842220067978,
            0.4002338945865631,
            0.6411963105201721,
            0.8380461931228638,
            0.42311665415763855,
            -0.030172383412718773
          ]
        },
        {
          "mixing": {
            "advertiser": 0.0,
            "civic_diversity": 0.2,
            "journalist": 0.0,
            "publisher": 0.6,
            "reader": 0.2
          },
          "weights": [
            1.0481220483779907,
            0.6582328081130981,
            0.019634049385786057,
            0.010939201340079308,
            -0.25370529294013977,
            -0.058765240013599396,
            0.22169893980026245,
            0.07892787456512451,
            -0.30326518416404724,
            -0.5473262667655945,
            -0.12397868931293488,
            0.051123227924108505,
            -0.5844530463218689,
            -0.2422604113817215,
            -0.5927650928497314,
            3.065170732876491e-30,
            3.065170732876491e-30,
            -0.049130041152238846,
            0.1487603336572647,
            0.012889625504612923,
            -0.4248318672180176,
            0.07892787456512451,
            -0.0340840220451355,
            -0.10550013929605484,
            -0.228398397564888,
            0.5235812664031982,
            -0.3138674795627594,
            0.1017889454960823,
            0.028060443699359894,
            0.42078834772109985,
            0.07445606589317322,
            0.45149606466293335,
            0.13459163904190063,
            0.6294520497322083,
            -0.07721024751663208
          ]
        },
        {
          "mixing": {
            "advertiser": 0.0,
            "civic_diversity": 0.2,
            "journalist": 0.0,
            "publisher": 0.8,
            "reader": 0.0
          },
          "weights": [
            1.4272232055664062,
            0.8559706807136536,
            0.1266421228647232,
            -0.17727221548557281,
            0.03843367099761963,
            -0.0027714790776371956,
            -0.03870212286710739,
            -0.15193532407283783,
            -0.1957525759935379,
            -0.3095755875110626,
            -0.5499028563499451,
            -0.43057459592819214,
            -1.1010072231292725,
            -0.465241014957428,
            -0.06132623925805092,
            3.065170732876491e-30,
            3.065170732876491e-30,
            -0.02564048580825329,
            -0.04175303503870964,
            -0.19605493545532227,
            -0.25004181265830994,
            -0.15193532407283783,
            0.0959002822637558,
            0.19939997792243958,
            -0.1731996238231659,
            0.5552365183830261,
            -0.058713413774967194,
            0.11903148144483566,
            -0.06062798202037811,
            0.36221498250961304,
            -0.37077969312667847,
            0.06229788437485695,
            0.059123046696186066,
            0.12008747458457947,
            -0.23002350330352783
          ]
        },
        {
          "mixing": {
            "advertiser": 0.0,
            "civic_diversity": 0.2,
            "journalist": 0.2,
            "publisher": 0.0,
            "reader": 0.6
          },
          "weights": [
            0.2517397403717041,
            0.3837525546550751,
            -0.3519063889980316,
            -0.4361300766468048,
            -0.45313888788223267,
            -0.0931200161576271,
            0.22394943237304688,
            0.39127081632614136,
            0.1163920983672142,
            -0.4745197594165802,
            0.7367938160896301,
            0.4797123372554779,
            -0.5286991000175476,
            0.00476174708455801,
            -0.07421156018972397,
            3.065170732876491e-30,
            3.065170732876491e-30,
            0.10142461210489273,
            -0.27348679304122925,
            0.3337540626525879,
            -0.049338631331920624,
            0.39127081632614136,
            -0.19599340856075287,
            -0.1408929079771042,
            -0.30600911378860474,
            -0.09133942425251007,
            -0.24677050113677979,
            0.02135567180812359,
            0.6943572163581848,
            0.04617476835846901,
            -0.03587039187550545,
            1.6389312744140625,
            1.3908196687698364,
            1.9455454349517822,
            0.02664092183113098
          ]
        },
        {
          "mixing": {
            "advertiser": 0.0,
            "civic_diversity": 0.2,
            "journalist": 0.2,
            "publisher": 0.2,
            "reader": 0.4
          },
          "weights": [
            0.17671817541122437,
            0.45300349593162537,
            -0.08831688016653061,
            -0.023711444810032845,
            -0.05534658208489418,
            -0.025168627500534058,
            0.16879038512706757,
            0.06904102861881256,
            -0.15251395106315613,
            -0.6666383147239685,
            0.07211216539144516,
            0.3753821551799774,
            -0.08910596370697021,
            0.19815108180046082,
            -0.32180121541023254,
            3.065170732876491e-30,
            3.065170732876491e-30,
            0.23789773881435394,
            -0.11326196044683456,
            0.5937913060188293,
            -0.1370657980442047,
            0.06904102861881256,
            0.28523778915405273,
            -0.5205150246620178,
            0.1469115912914276,
            -0.09690864384174347,
            -0.1568404883146286,
            -0.40145429968833923,
            0.22645233571529388,
            0.1461315155029297,
            -0.10164754837751389,
            0.9637681841850281,
            0.9023708701133728,
            1.1632472276687622,
            -0.01432298868894577
          ]
        },
        {
          "mixing": {
            "advertiser": 0.0,
            "civic_diversity": 0.2,
            "journalist": 0.2,
            "publisher": 0.4,
            "reader": 0.2
          },
          "weights": [
            0.7540901899337769,
            0.8680388331413269,
            0.16073790192604065,
            -0.2272287905216217,
            -0.5421095490455627,
            0.36362224817276,
            -0.10467923432588577,
            0.06704989820718765,
            0.054753925651311874,
            -0.5257917642593384,
            -0.2787191569805145,
            -0.2421000897884369,
            -0.5448715686798096,
            -0.0848182663321495,
            -0.20098106563091278,
            3.065170732876491e-30,
            3.065170732876491e-30,
            0.1423145979642868,
            -0.23972691595554352,
            0.34979936480522156,
            -0.2667204737663269,
            0.06704989820718765,
            -0.14902621507644653,
            -0.38641977310180664,
            0.005716657731682062,
            0.13723166286945343,
            0.028192488476634026,
            0.005193779710680246,
            0.2014624923467636,
            -0.24613429605960846,
            0.530440092086792,
            0.551868736743927,
            0.8128291368484497,
            0.5111250281333923,
            -0.013975514099001884
          ]
        },
        {
          "mixing": {
            "advertiser": 0.0,
            "civic_diversity": 0.2,
            "journalist": 0.2,
            "publisher": 0.6,
            "reader": 0.0
          },
          "weights": [
            1.1647342443466187,
            0.6933243870735168,
            0.09324458986520767,
            -0.007924851030111313,
            0.0636201947927475,
            0.3446348011493683,
            -0.2081129103899002,
            0.01605226658284664,
            -0.009445630945265293,
            -0.46061089634895325,
            -0.4268028736114502,
            -0.7498757243156433,
            -0.5249006748199463,
            -0.6062173247337341,
            -0.25343623757362366,
            3.065170732876491e-30,
            3.065170732876491e-30,
            0.08760189265012741,
            -0.07033263891935349,
            -0.19253984093666077,
            -0.18620671331882477,
            0.01605226658284664,
            0.07983481138944626,
            -0.2636725604534149,
            -0.11360615491867065,
            0.04679224640130997,
            0.06829239428043365,
            -0.1093360036611557,
            0.6351810693740845,
            0.3712054193019867,
            -0.05697854980826378,
            0.7486416697502136,
            0.24984952807426453,
            0.45662882924079895,
            0.03521342575550079
          ]
        },
        {
          "mixing": {
            "advertiser": 0.0,
            "civic_diversity": 0.2,
            "journalist": 0.4,
            "publisher": 0.0,
            "reader": 0.4
          },
          "weights": [
            0.033764809370040894,
            0.14424604177474976,
            -0.1781887710094452,
            -0.39770734310150146,
            -0.06028293818235397,
            0.24427522718906403,
            -0.43603700399398804,
            0.1969449669122696,
            0.04325730726122856,
            0.004469491075724363,
            0.5526902079582214,
            0.48979946970939636,
            -0.09726237505674362,
            0.32000333070755005,
            -0.48109370470046997,
            3.065170732876491e-30,
            3.065170732876491e-30,
            0.4684574604034424,
            0.023809678852558136,
            0.4774527847766876,
            -0.40664994716644287,
            0.1969449669122696,
            -0.1497807800769806,
            -0.34388211369514465,
            0.21201136708259583,
            -0.042066946625709534,
            -0.17874693870544434,
            0.029906101524829865,
            0.5267078876495361,
            0.08744430541992188,
            -0.5796713829040527,
            1.309657335281372,
            1.0773212909698486,
            1.5335524082183838,
            0.14203587174415588
          ]
        },
        {
          "mixing": {
            "advertiser": 0.0,
            "civic_diversity": 0.2,
            "journalist": 0.4,
            "publisher": 0.2,
            "reader": 0.2
          },
          "weights": [
            0.4058779180049896,
            0.41978907585144043,
            -0.11041119694709778,
            -0.11522061377763748,
            -0.08890680968761444,
            0.28679436445236206,
            -0.31897997856140137,
            0.21742936968803406,
            -0.041342537850141525,
            -0.007318809162825346,
            -0.16047444939613342,
            -0.32771411538124084,
            -0.24586588144302368,
            0.3682485520839691,
            -0.4195716381072998,
            3.065170732876491e-30,
            3.065170732876491e-30,
            0.48089364171028137,
            -0.2991344630718231,
            0.34439265727996826,
            -0.32336729764938354,
            0.21742936968803406,
            -0.2530708909034729,
            -0.3249744176864624,
            0.5166780948638916,
            -0.04601014032959938,
            -0.41168802976608276,
            -0.5106062293052673,
            0.6156314015388489,
            0.04756079614162445,
            0.15603315830230713,
            1.1572630405426025,
            0.7030773162841797,
            1.3500831127166748,
            0.10635566711425781
          ]
        },
        {
          "mixing": {
            "advertiser": 0.0,
            "civic_diversity": 0.2,
            "journalist": 0.4,
            "publisher": 0.4,
            "reader": 0.0
          },
          "weights": [
            0.6593201756477356,
            0.6281489729881287,
            0.1816335916519165,
            -0.09473006427288055,
            -0.07587713748216629,
            0.09602440893650055,
            -0.6467255353927612,
            -0.12833505868911743,
            0.32374444603919983,
            -0.20864282548427582,
            -0.3674596846103668,
            -0.846191942691803,
            -0.06510233134031296,
            0.35432007908821106,
            -0.17896878719329834,
            3.065170732876491e-30,
            3.065170732876491e-30,
            0.6581132411956787,
            -0.12451425939798355,
            0.43139028549194336,
            -0.412957102060318,
            -0.12833505868911743,
            -0.1293579638004303,
            -0.6963675022125244,
            0.31443262100219727,
            0.03455733135342598,
            -0.06821924448013306,
            0.001076510176062584,
            0.46334174275398254,
            -0.02917609177529812,
            0.06933506578207016,
            0.3661133348941803,
            0.7009407877922058,
            0.4881003797054291,
            0.22531042993068695
          ]
        },
        {
          "mixing": {
            "advertiser": 0.0,
            "civic_diversity": 0.2,
            "journalist": 0.6,
            "publisher": 0.0,
            "reader": 0.2
          },
          "weights": [
            0.1664145439863205,
            0.11003082245588303,
            0.054635461419820786,
            -0.07421386986970901,
            -0.1418168693780899,
            0.17418983578681946,
            -0.43109622597694397,
            0.10870361328125,
            0.2943449318408966,
            -0.07157333195209503,
            0.021228356286883354,
            -0.49826544523239136,
            -0.2956039011478424,
            0.919217586517334,
            -0.11512516438961029,
            3.065170732876491e-30,
            3.065170732876491e-30,
            0.7666718363761902,
            -0.055590566247701645,
            0.6101879477500916,
            -0.6462500691413879,
            0.10870361328125,
            -0.18212878704071045,
            -0.2999463975429535,
            0.23581822216510773,
            -0.08816193044185638,
            -0.3087655007839203,
            0.30456966161727905,
            0.6370064616203308,
            -0.6386632919311523,
            -0.40803295373916626,
            1.1068387031555176,
            1.346886157989502,
            1.1381412744522095,
            0.06390993297100067
          ]
        },
        {
          "mixing": {
            "advertiser": 0.0,
            "civic_diversity": 0.2,
            "journalist": 0.6,
            "publisher": 0.2,
            "reader": 0.0
          },
          "weights": [
            0.3037865459918976,
            0.25619155168533325,
            0.15280106663703918,
            0.21564267575740814,
            0.09979446232318878,
            0.5276967287063599,
            -0.3117454946041107,
            0.07592795044183731,
            -0.021616380661725998,
            0.2056317776441574,
            -0.5463141798973083,
            -0.3095247149467468,
            -0.6428568959236145,
            0.13734646141529083,
            -0.3464885652065277,
            3.065170732876491e-30,
            3.065170732876491e-30,
            0.8402078151702881,
            -0.19400161504745483,
            0.5709132552146912,
            -0.4984854757785797,
            0.07592795044183731,
            -0.01940423808991909,
            -0.6229932308197021,
            0.6944176554679871,
            0.08195099234580994,
            -0.6471607685089111,
            0.006086857058107853,
            0.6017719507217407,
            -0.221859410405159,
            -0.36853358149528503,
            0.7397599816322327,
            0.7709836959838867,
            0.8657549023628235,
            0.29966431856155396
          ]
        },
        {
          "mixing": {
            "advertiser": 0.0,
            "civic_diversity": 0.2,
            "journalist": 0.8,
            "publisher": 0.0,
            "reader": 0.0
          },
          "weights": [
            -0.09069086611270905,
            0.010713686235249043,
            -0.07425142079591751,
            0.30764567852020264,
            0.2445308268070221,
            0.4280450642108917,
            -0.5134106278419495,
            0.018352996557950974,
            0.19103647768497467,
            0.4751126170158386,
            -0.6680852174758911,
            -0.3864422142505646,
            -0.15201227366924286,
            0.4105558693408966,
            0.07587637007236481,
            3.065170732876491e-30,
            3.065170732876491e-30,
            1.221893548965454,
            -0.5059439539909363,
            1.1791244745254517,
            -0.4455435872077942,
            0.018352996557950974,
            -0.4841689467430115,
            -0.7340752482414246,
            0.8509113192558289,
            -0.30114030838012695,
            -0.7908346056938171,
            -0.2823543846607208,
            1.0892990827560425,
            -0.2579001784324646,
            -0.4467109143733978,
            1.4773736000061035,
            1.368834137916565,
            0.8413296937942505,
            0.2913903594017029
          ]
        },
        {
          "mixing": {
            "advertiser": 0.0,
            "civic_diversity": 0.4,
            "journalist": 0.0,
            "publisher": 0.0,
            "reader": 0.6
          },
          "weights": [
            -0.603467583656311,
            -0.002980512101203203,
            -0.5270121097564697,
            -0.3228546679019928,
            -0.4034663140773773,
            -0.07496564835309982,
            0.18403403460979462,
            0.45443814992904663,
            -0.0432271845638752,
            -0.13406141102313995,
            1.2202068567276,
            1.1886626482009888,
            0.1418287307024002,
            0.10127134621143341,
            -0.3433341681957245,
            3.065170732876491e-30,
            3.065170732876491e-30,
            -0.08455592393875122,
            0.03413371741771698,
            0.306075781583786,
            -0.15016993880271912,
            0.45443814992904663,
            -0.15914851427078247,
            -0.2636359930038452,
            -0.32892897725105286,
            0.07136829942464828,
            0.38624438643455505,
            -0.03538147360086441,
            -0.15911585092544556,
            0.01675594225525856,
            -0.09232571721076965,
            1.1778442859649658,
            1.27476966381073,
            1.396904468536377,
            -0.19707098603248596
          ]
        },
        {
          "mixing": {
            "advertiser": 0.0,
            "civic_diversity": 0.4,
            "journalist": 0.0,
            "publisher": 0.2,
            "reader": 0.4
          },
          "weights": [
            -0.21976260840892792,
            0.15122650563716888,
            -0.2924363315105438,
            -0.4587724804878235,
            -0.29246217012405396,
            0.1554165929555893,
            0.2631378471851349,
            0.09694171696901321,
            -0.12485335767269135,
            -0.1762903779745102,
            0.6862300038337708,
            0.5753323435783386,
            -0.3842911720275879,
            0.5756095051765442,
            0.1142619252204895,
            3.065170732876491e-30,
            3.065170732876491e-30,
            -0.07477102428674698,
            -0.28415581583976746,
            0.21604113280773163,
            -0.38885214924812317,
            0.09694171696901321,
            0.29863598942756653,
            -0.20867286622524261,
            -0.20052579045295715,
            0.14072223007678986,
            -0.005335639230906963,
            -0.15471623837947845,
            0.16325530409812927,
            0.6002714037895203,
            -0.16262243688106537,
            0.8979396224021912,
            0.9357567429542542,
            0.7718760371208191,
            -0.20849451422691345
          ]
        },
        {
          "mixing": {
            "advertiser": 0.0,
            "civic_diversity": 0.4,
            "journalist": 0.0,
            "publisher": 0.4,
            "reader": 0.2
          },
          "weights": [
            0.005432280711829662,
            0.383086234331131,
            -0.044850099831819534,
            -0.2355579137802124,
            -0.3119443356990814,
            0.32417502999305725,
            0.056165631860494614,
            0.17626971006393433,
            0.04579731076955795,
            0.12019859254360199,
            0.1873868852853775,
            0.20053528249263763,
            -0.43773338198661804,
            -0.23576399683952332,
            -0.050508640706539154,
            3.065170732876491e-30,
            3.065170732876491e-30,
            0.04952653869986534,
            -0.283720999956131,
            0.04310176894068718,
            -0.16122132539749146,
            0.17626971006393433,
            -0.3128792941570282,
            -0.12638507783412933,
            -0.19882260262966156,
            0.18677465617656708,
            0.2560795843601227,
            0.09297382831573486,
            0.15804904699325562,
            0.20847102999687195,
            0.01541742030531168,
            0.05206199362874031,
            0.4098132252693176,
            0.3811870217323303,
            -0.1257920265197754
          ]
        },
        {
          "mixing": {
            "advertiser": 0.0,
            "civic_diversity": 0.4,
            "journalist": 0.0,
            "publisher": 0.6,
            "reader": 0.0
          },
          "weights": [
            0.4020194709300995,
            0.48742493987083435,
            -0.15624044835567474,
            0.04465789347887039,
            0.08663222938776016,
            0.029405297711491585,
            0.004395760595798492,
            0.05457613989710808,
            0.26924338936805725,
            0.2115107923746109,
            0.09008751064538956,
            -0.5109738111495972,
            -0.6480467915534973,
            -0.24046118557453156,
            -0.2833541929721832,
            3.065170732876491e-30,
            3.065170732876491e-30,
            0.07571085542440414,
            -0.07917101681232452,
            -0.04839199781417847,
            -0.18105801939964294,
            0.05457613989710808,
            0.22557291388511658,
            0.026990167796611786,
            0.010583285242319107,
            0.11622621864080429,
            0.03750824183225632,
            -0.22199760377407074,
            0.13237862288951874,
            -0.0582549162209034,
            0.04551209881901741,
            -0.12941376864910126,
            0.030533215031027794,
            0.11589091271162033,
            -0.08825546503067017
          ]
        },
        {
          "mixing": {
            "advertiser": 0.0,
            "civic_diversity": 0.4,
            "journalist": 0.2,
            "publisher": 0.0,
            "reader": 0.4
          },
          "weights": [
            -0.6702854037284851,
            -0.015301668085157871,
            -0.38646793365478516,
            -0.049777742475271225,
            -0.23675987124443054,
            0.22687430679798126,
            -0.068283312022686,
            0.4210164546966553,
            0.0075395177118480206,
            0.24385395646095276,
            0.37955909967422485,
            0.31093937158584595,
            0.26598718762397766,
            0.0906275063753128,
            0.3389005661010742,
            3.065170732876491e-30,
            3.065170732876491e-30,
            0.26681584119796753,
            -0.4699687361717224,
            0.5225138068199158,
            -0.34286561608314514,
            0.4210164546966553,
            0.04016941413283348,
            -0.735497772693634,
            -0.13209766149520874,
            0.09669936448335648,
            0.20041479170322418,
            -0.04634619131684303,
            0.4687627851963043,
            -0.17158201336860657,
            0.05198587849736214,
            1.140491247177124,
            0.8632742166519165,
            1.5710355043411255,
            -0.011888706125319004
          ]
        },
        {
          "mixing": {
            "advertiser": 0.0,
            "civic_diversity": 0.4,
            "journalist": 0.2,
            "publisher": 0.2,
            "reader": 0.2
          },
          "weights": [
            -0.13030913472175598,
            0.056949883699417114,
            -0.16466443240642548,
            -0.15542297065258026,
            -0.12814360857009888,
            0.09890204668045044,
            0.08117987215518951,
            0.10041647404432297,
            0.33279547095298767,
            0.008242824114859104,
            0.48988819122314453,
            0.20472238957881927,
            -0.1432615965604782,
            0.09850045293569565,
            -0.3724215626716614,
            3.065170732876491e-30,
            3.065170732876491e-30,
            0.28862664103507996,
            -0.2069971114397049,
            -0.033933430910110474,
            0.009825988672673702,
            0.10041647404432297,
            -0.2942897081375122,
            -0.22215533256530762,
            0.17618337273597717,
            0.007470646407455206,
            0.1959911435842514,
            0.0017548758769407868,
            0.22830422222614288,
            -0.13004256784915924,
            0.15364786982536316,
            0.2987113296985626,
            0.6715803146362305,
            0.6949990391731262,
            0.045363377779722214
          ]
        },
        {
          "mixing": {
            "advertiser": 0.0,
            "civic_diversity": 0.4,
            "journalist": 0.2,
            "publisher": 0.4,
            "reader": 0.0
          },
          "weights": [
            0.07728289812803268,
            0.06200667470693588,
            0.11375239491462708,
            0.04755007103085518,
            -0.13877522945404053,
            0.20324194431304932,
            -0.08685465902090073,
            -0.17397043108940125,
            0.2927166819572449,
            0.44970837235450745,
            -0.2688038945198059,
            0.07740740478038788,
            -0.3770197629928589,
            -0.03333088010549545,
            0.010124062187969685,
            3.065170732876491e-30,
            3.065170732876491e-30,
            0.19080166518688202,
            0.0067719705402851105,
            0.1643112450838089,
            -0.5612017512321472,
            -0.17397043108940125,
            0.46892714500427246,
            -0.3990667462348938,
            -0.29713350534439087,
            0.04573914781212807,
            0.12442734837532043,
            0.23360010981559753,
            0.25765562057495117,
            0.12167269736528397,
            0.30368760228157043,
            0.10172493010759354,
            0.40418076515197754,
            -0.14042824506759644,
            0.14287887513637543
          ]
        },
        {
          "mixing": {
            "advertiser": 0.0,
            "civic_diversity": 0.4,
            "journalist": 0.4,
            "publisher": 0.0,
            "reader": 0.2
          },
          "weights": [
            -0.4823838770389557,
            -0.18891742825508118,
            -0.12839244306087494,
            -0.2002084106206894,
            -0.07294286787509918,
            0.06447859108448029,
            -0.007379863411188126,
            0.25659075379371643,
            0.21442723274230957,
            0.20161844789981842,
            -0.1003388911485672,
            0.4200631082057953,
            0.18330559134483337,
            0.40310704708099365,
            0.13817061483860016,
            3.065170732876491e-30,
            3.065170732876491e-30,
            0.29799747467041016,
            -0.44846200942993164,
            0.3259315490722656,
            -0.30850672721862793,
            0.25659075379371643,
            -0.09129975736141205,
            -0.4847815930843353,
            0.21894942224025726,
            0.14975585043430328,
            -0.07528124004602432,
            0.07841704785823822,
            0.5551255941390991,
            0.11878076195716858,
            -0.2338026463985443,
            1.0362768173217773,
            1.0051689147949219,
            0.9620493650436401,
            0.13408036530017853
          ]
        },
        {
          "mixing": {
            "advertiser": 0.0,
            "civic_diversity": 0.4,
            "journalist": 0.4,
            "publisher": 0.2,
            "reader": 0.0
          },
          "weights": [
            0.04700300842523575,
            -0.1316879391670227,
            0.09875623136758804,
            0.05577315762639046,
            0.2898409366607666,
            0.1694653481245041,
            -0.1579362154006958,
            -0.02135608159005642,
            0.5072859525680542,
            0.18005095422267914,
            -0.1411312073469162,
            0.048153627663850784,
            -0.35757169127464294,
            0.06787028163671494,
            -0.4056131839752197,
            3.065170732876491e-30,
            3.065170732876491e-30,
            0.3117769658565521,
            0.1721145212650299,
            0.17462408542633057,
            -0.4901804029941559,
            -0.02135608159005642,
            0.5015723705291748,
            -0.1696377694606781,
            0.20478932559490204,
            -0.031166624277830124,
            -0.2518453896045685,
            -0.12951107323169708,
            0.20735439658164978,
            -0.2469976544380188,
            -0.2780574560165405,
            0.6935798525810242,
            0.6866113543510437,
            0.43881696462631226,
            -0.12046514451503754
          ]
        },
        {
          "mixing": {
            "advertiser": 0.0,
            "civic_diversity": 0.4,
            "journalist": 0.6,
            "publisher": 0.0,
            "reader": 0.0
          },
          "weights": [
            -0.369742214679718,
            -0.33754122257232666,
            0.14495109021663666,
            0.041766464710235596,
            0.009054167196154594,
            0.6178452372550964,
            0.04852968081831932,
            -0.0565144382417202,
            0.21821659803390503,
            0.24024488031864166,
            0.2163979560136795,
            -0.11004224419593811,
            -0.17529278993606567,
            0.2635394334793091,
            -0.0920492634177208,
            3.065170732876491e-30,
            3.065170732876491e-30,
            0.6185557842254639,
            -0.30586686730384827,
            0.4995224177837372,
            -0.5641917586326599,
            -0.0565144382417202,
            -0.07462944090366364,
            -0.2093309611082077,
            0.8505192995071411,
            -0.29562869668006897,
            -0.5959692001342773,
            0.08176782727241516,
            0.6355849504470825,
            -0.40446382761001587,
            0.450358122587204,
            0.39707309007644653,
            0.9283834099769592,
            0.9097602367401123,
            0.34694522619247437
          ]
        },
        {
          "mixing": {
            "advertiser": 0.0,
            "civic_diversity": 0.6,
            "journalist": 0.0,
            "publisher": 0.0,
            "reader": 0.4
          },
          "weights": [
            -1.0816415548324585,
            -0.6285895705223083,
            -0.49826255440711975,
            -0.3098354637622833,
            0.07203622907400131,
            0.06750644743442535,
            0.3012131452560425,
            0.39020252227783203,
            0.7763380408287048,
            0.11397089809179306,
            0.8659707903862,
            0.8122172951698303,
            -0.1252070814371109,
            0.652098536491394,
            0.060551803559064865,
            3.065170732876491e-30,
            3.065170732876491e-30,
            -0.178586944937706,
            0.12300816923379898,
            -0.0846722200512886,
            -0.42650651931762695,
            0.39020252227783203,
            0.35473525524139404,
            -0.41090473532676697,
            -0.3393314480781555,
            0.3141704797744751,
            0.008696035481989384,
            0.020885352045297623,
            0.32224777340888977,
            0.20322510600090027,
            -0.3048218786716461,
            0.5013957619667053,
            0.7942538261413574,
            1.042413353919983,
            -0.17306673526763916
          ]
        },
        {
          "mixing": {
            "advertiser": 0.0,
            "civic_diversity": 0.6,
            "journalist": 0.0,
            "publisher": 0.2,
            "reader": 0.2
          },
          "weights": [
            -0.5931157469749451,
            -0.3378198742866516,
            -0.32010796666145325,
            -0.2065027803182602,
            -0.0906054824590683,
            0.06331617385149002,
            -0.03852283954620361,
            0.218353271484375,
            0.30380597710609436,
            -0.08500359952449799,
            0.8920607566833496,
            0.7452154755592346,
            -0.03645074740052223,
            0.2724398374557495,
            0.21165834367275238,
            3.065170732876491e-30,
            3.065170732876491e-30,
            -0.11281995475292206,
            0.11020557582378387,
            -0.052440136671066284,
            -0.18913666903972626,
            0.218353271484375,
            -0.26995614171028137,
            -0.07874349504709244,
            0.0890432819724083,
            0.3042435646057129,
            0.07825617492198944,
            0.0787377655506134,
            -0.01998017728328705,
            0.21943391859531403,
            -0.15935157239437103,
            -0.22936353087425232,
            0.34456464648246765,
            0.3757787346839905,
            -0.05146760120987892
          ]
        },
        {
          "mixing": {
            "advertiser": 0.0,
            "civic_diversity": 0.6,
            "journalist": 0.0,
            "publisher": 0.4,
            "reader": 0.0
          },
          "weights": [
            -0.060113850980997086,
            -0.10622069239616394,
            -0.04308709874749184,
            -0.2440822273492813,
            -0.1970512419939041,
            0.231374591588974,
            -0.02057741768658161,
            -0.031550195068120956,
            0.16087134182453156,
            0.028927849605679512,
            0.11343531310558319,
            0.3917005956172943,
            0.39367926120758057,
            -0.04594867303967476,
            -0.09486565738916397,
            3.065170732876491e-30,
            3.065170732876491e-30,
            -0.3772334158420563,
            0.045380838215351105,
            -0.1888371855020523,
            -0.460387647151947,
            -0.031550195068120956,
            0.011158592998981476,
            0.041060805320739746,
            -0.03751736506819725,
            -0.0503992885351181,
            -0.029012367129325867,
            0.8155450820922852,
            0.04499591514468193,
            -0.3691386580467224,
            0.6639097332954407,
            0.25670260190963745,
            0.17839768528938293,
            -0.1828887015581131,
            -0.17557209730148315
          ]
        },
        {
          "mixing": {
            "advertiser": 0.0,
            "civic_diversity": 0.6,
            "journalist": 0.2,
            "publisher": 0.0,
            "reader": 0.2
          },
          "weights": [
            -1.0206806659698486,
            -0.5728628039360046,
            -0.15424251556396484,
            -0.3895657956600189,
            -0.16297629475593567,
            0.299622118473053,
            0.07275185734033585,
            0.26750820875167847,
            0.41736483573913574,
            0.2457905262708664,
            0.34545087814331055,
            0.5525664687156677,
            0.6271041035652161,
            1.0371546745300293,
            0.015128279104828835,
            3.065170732876491e-30,
            3.065170732876491e-30,
            0.015560796484351158,
            -0.14118769764900208,
            -0.09050729125738144,
            -0.239376500248909,
            0.26750820875167847,
            0.4054809808731079,
            -0.25094544887542725,
            -0.3348367214202881,
            -0.1432185173034668,
            0.18784143030643463,
            -0.10227563977241516,
            0.13509903848171234,
            0.3260013163089752,
            0.21794191002845764,
            0.723280131816864,
            0.6420561075210571,
            0.49909508228302,
            -0.00764280091971159
          ]
        },
        {
          "mixing": {
            "advertiser": 0.0,
            "civic_diversity": 0.6,
            "journalist": 0.2,
            "publisher": 0.2,
            "reader": 0.0
          },
          "weights": [
            -0.45290032029151917,
            -0.5488781332969666,
            -0.22556445002555847,
            0.13192401826381683,
            0.037694334983825684,
            0.37518683075904846,
            -0.03574652597308159,
            0.2383575290441513,
            0.3262222409248352,
            -0.10278291255235672,
            0.30583399534225464,
            0.15897537767887115,
            0.32396283745765686,
            0.5362688302993774,
            -0.19104337692260742,
            3.065170732876491e-30,
            3.065170732876491e-30,
            -0.10865893214941025,
            0.07872223109006882,
            0.008701604790985584,
            -0.3899487555027008,
            0.2383575290441513,
            -0.2427894026041031,
            -0.06295344233512878,
            -0.10780005156993866,
            0.32461726665496826,
            0.05665428563952446,
            0.2909061312675476,
            -0.1557212918996811,
            0.18743208050727844,
            0.008699397556483746,
            0.09871629625558853,
            0.32603248953819275,
            0.44244149327278137,
            -0.08535035699605942
          ]
        },
        {
          "mixing": {
            "advertiser": 0.0,
            "civic_diversity": 0.6,
            "journalist": 0.4,
            "publisher": 0.0,
            "reader": 0.0
          },
          "weights": [
            -0.9656550288200378,
            -0.7415444850921631,
            -0.20817172527313232,
            0.247439444065094,
            0.1499233990907669,
            0.34751468896865845,
            -0.2324245423078537,
            0.09588945657014847,
            0.5044056177139282,
            0.6151701211929321,
            0.5796781182289124,
            0.20800435543060303,
            0.28552260994911194,
            0.5826449394226074,
            -0.11136961728334427,
            3.065170732876491e-30,
            3.065170732876491e-30,
            0.3322750926017761,
            -0.16230107843875885,
            0.6063420176506042,
            -0.627346396446228,
            0.09588945657014847,
            -0.048241958022117615,
            -0.43750059604644775,
            0.3589911162853241,
            0.15982171893119812,
            -0.1712033450603485,
            -0.2379378229379654,
            0.40964433550834656,
            -0.36472007632255554,
            0.1424640268087387,
            0.8936067223548889,
            0.7421115636825562,
            0.5125392079353333,
            -0.04225018247961998
          ]
        },
        {
          "mixing": {
            "advertiser": 0.0,
            "civic_diversity": 0.8,
            "journalist": 0.0,
            "publisher": 0.0,
            "reader": 0.2
          },
          "weights": [
            -1.7601569890975952,
            -1.0698940753936768,
            -0.5637605786323547,
            0.09168577939271927,
            -0.24108374118804932,
            0.03107934445142746,
            0.34272411465644836,
            0.49477583169937134,
            0.545311689376831,
            0.41408950090408325,
            1.2159688472747803,
            1.4305651187896729,
            0.7043805718421936,
            0.8813488483428955,
            -0.17673592269420624,
            3.065170732876491e-30,
            3.065170732876491e-30,
            -0.22252710163593292,
            -0.1936081200838089,
            -0.42219939827919006,
            -0.218429833650589,
            0.49477583169937134,
            0.23834167420864105,
            -0.3688380718231201,
            -0.438132107257843,
            0.1618894785642624,
            0.635412871837616,
            -0.07053352892398834,
            -0.11453264206647873,
            -0.010278747417032719,
            0.3156088590621948,
            0.8673471212387085,
            0.5802323222160339,
            0.3516708016395569,
            -0.28571856021881104
          ]
        },
        {
          "mixing": {
            "advertiser": 0.0,
            "civic_diversity": 0.8,
            "journalist": 0.0,
            "publisher": 0.2,
            "reader": 0.0
          },
          "weights": [
            -0.9823703169822693,
            -0.8620033860206604,
            -0.16261430084705353,
            0.04487542435526848,
            0.0866641104221344,
            0.0872907042503357,
            0.1905537247657776,
            0.12435898929834366,
            0.5797882080078125,
            0.3596298396587372,
            0.3099534511566162,
            0.43818721175193787,
            1.0926694869995117,
            0.7836300730705261,
            -0.6178892254829407,
            3.065170732876491e-30,
            3.065170732876491e-30,
            -0.21246230602264404,
            0.16055607795715332,
            -0.16021332144737244,
            -0.46990767121315,
            0.12435898929834366,
            0.08049026876688004,
            0.06862635165452957,
            -0.4728175103664398,
            0.41382932662963867,
            -0.02152026630938053,
            -0.0768127515912056,
            0.0153112281113863,
            0.025615165010094643,
            0.1536194384098053,
            0.0010709469206631184,
            -0.10309664160013199,
            0.373730331659317,
            -0.30941450595855713
          ]
        },
        {
          "mixing": {
            "advertiser": 0.0,
            "civic_diversity": 0.8,
            "journalist": 0.2,
            "publisher": 0.0,
            "reader": 0.0
          },
          "weights": [
            -1.3485451936721802,
            -0.9639520645141602,
            -0.45069390535354614,
            -0.06376434117555618,
            0.04021352156996727,
            0.12636424601078033,
            0.22626370191574097,
            0.21412572264671326,
            0.7946377396583557,
            0.5806805491447449,
            0.5173352956771851,
            0.4053916931152344,
            0.8554580211639404,
            1.0168050527572632,
            -0.0600256584584713,
            3.065170732876491e-30,
            3.065170732876491e-30,
            -0.07016007602214813,
            -0.03616039827466011,
            0.017288021743297577,
            -0.46410778164863586,
            0.21412572264671326,
            -0.012944389134645462,
            -0.3052385151386261,
            -0.015368938446044922,
            -0.006166905630379915,
            0.09398563951253891,
            -0.04469411075115204,
            0.1597859263420105,
            0.07697276026010513,
            0.11587010324001312,
            0.7406014204025269,
            0.4904007017612457,
            0.07452444732189178,
            -0.2291267067193985
          ]
        },
        {
          "mixing": {
            "advertiser": 0.2,
            "civic_diversity": 0.0,
            "journalist": 0.0,
            "publisher": 0.0,
            "reader": 0.8
          },
          "weights": [
            -0.16620349884033203,
            0.547214925289154,
            -0.33127570152282715,
            -0.6857538223266602,
            -0.7625809907913208,
            0.23926185071468353,
            -0.07389586418867111,
            0.3242616057395935,
            -0.3134608566761017,
            -0.8922343850135803,
            1.2801756858825684,
            1.2096796035766602,
            -0.20160643756389618,
            0.28618553280830383,
            -0.1129603162407875,
            3.065170732876491e-30,
            3.065170732876491e-30,
            -0.2439912110567093,
            -0.3128349184989929,
            0.24652475118637085,
            -0.33908671140670776,
            0.3242616057395935,
            -0.015481892041862011,
            0.17213240265846252,
            -0.12674692273139954,
            0.3532293736934662,
            -0.08072566241025925,
            0.23298513889312744,
            -0.04822496697306633,
            -0.21617165207862854,
            0.2725088596343994,
            1.63370680809021,
            1.6727725267410278,
            2.3840770721435547,
            -0.020753545686602592
          ]
        },
        {
          "mixing": {
            "advertiser": 0.2,
            "civic_diversity": 0.0,
            "journalist": 0.0,
            "publisher": 0.2,
            "reader": 0.6
          },
          "weights": [
            0.4431988000869751,
            0.7739373445510864,
            -0.4835192561149597,
            -0.5832503437995911,
            -0.17180295288562775,
            0.37631234526634216,
            0.00019539179629646242,
            0.19417110085487366,
            -0.039716754108667374,
            -0.743099570274353,
            0.48583799600601196,
            0.7560803890228271,
            -0.7347416877746582,
            -0.3341308534145355,
            -0.1817253977060318,
            3.065170732876491e-30,
            3.065170732876491e-30,
            -0.07688891142606735,
            0.08710188418626785,
            0.10494653135538101,
            0.07213161885738373,
            0.19417110085487366,
            0.2935689091682434,
            -0.5414761900901794,
            -0.3509582579135895,
            0.34778717160224915,
            0.031910475343465805,
            0.603257417678833,
            -0.41738319396972656,
            -0.08439091593027115,
            -0.21073995530605316,
            1.0549696683883667,
            0.9219178557395935,
            1.4146475791931152,
            -0.1363903433084488
          ]
        },
        {
          "mixing": {
            "advertiser": 0.2,
            "civic_diversity": 0.0,
            "journalist": 0.0,
            "publisher": 0.4,
            "reader": 0.4
          },
          "weights": [
            0.7697187066078186,
            0.9321313500404358,
            -0.31512975692749023,
            0.03695911914110184,
            -0.3600882291793823,
            0.12044461071491241,
            -0.035071633756160736,
            0.0622076615691185,
            -0.4204449951648712,
            -0.6152155995368958,
            -0.06669791042804718,
            0.5079784393310547,
            -0.7339884638786316,
            -0.11327111721038818,
            -0.22232605516910553,
            3.065170732876491e-30,
            3.065170732876491e-30,
            -0.10021601617336273,
            -0.020963452756404877,
            -0.19072385132312775,
            -0.17439481616020203,
            0.0622076615691185,
            0.7154765725135803,
            -0.24467726051807404,
            -0.3998814821243286,
            0.2743830382823944,
            -0.04257949814200401,
            0.03783656284213066,
            -0.22186057269573212,
            0.18815772235393524,
            0.052957724779844284,
            0.4853120446205139,
            0.7090958952903748,
            0.6674155592918396,
            -0.2998398244380951
          ]
        },
        {
          "mixing": {
            "advertiser": 0.2,
            "civic_diversity": 0.0,
            "journalist": 0.0,
            "publisher": 0.6,
            "reader": 0.2
          },
          "weights": [
            0.9621720910072327,
            1.2229292392730713,
            0.15689371526241302,
            0.11677607893943787,
            -0.16246670484542847,
            0.09016724675893784,
            -0.3618755042552948,
            -0.2101355940103531,
            -0.403347373008728,
            -0.19997619092464447,
            -0.02847401425242424,
            -0.5173912644386292,
            -0.5503295063972473,
            -0.5889539122581482,
            -0.4504144787788391,
            3.065170732876491e-30,
            3.065170732876491e-30,
            0.078989177942276,
            -0.14831149578094482,
            0.37041333317756653,
            0.009989384561777115,
            -0.2101355940103531,
            0.3678669035434723,
            -0.24031957983970642,
            -0.13701918721199036,
            0.22031526267528534,
            0.22433660924434662,
            -0.40985098481178284,
            0.009594785049557686,
            -0.2701157331466675,
            0.15768174827098846,
            0.4266558885574341,
            0.37131837010383606,
            0.3983507752418518,
            -0.11886930465698242
          ]
        },
        {
          "mixing": {
            "advertiser": 0.2,
            "civic_diversity": 0.0,
            "journalist": 0.0,
            "publisher": 0.8,
            "reader": 0.0
          },
          "weights": [
            1.3232234716415405,
            1.2311358451843262,
            -0.11852682381868362,
            0.26361584663391113,
            0.29001760482788086,
            0.3271004557609558,
            -0.21758092939853668,
            -0.5648600459098816,
            -0.6016002297401428,
            -0.26850569248199463,
            -0.6040655374526978,
            -0.4632624387741089,
            -0.5878210067749023,
            -0.7095533609390259,
            -0.3293363153934479,
            3.065170732876491e-30,
            3.065170732876491e-30,
            0.030861523002386093,
            0.07131084054708481,
            -0.011575422249734402,
            -0.10865265130996704,
            -0.5648600459098816,
            0.4379676878452301,
            -0.24758949875831604,
            -0.3420177102088928,
            0.1355295330286026,
            -0.20706580579280853,
            0.3168816566467285,
            0.6085696220397949,
            0.183482363820076,
            -0.09021161496639252,
            -0.0878063440322876,
            0.04251404106616974,
            0.05294915288686752,
            -0.17080655694007874
          ]
        },
        {
          "mixing": {
            "advertiser": 0.2,
            "civic_diversity": 0.0,
            "journalist": 0.2,
            "publisher": 0.0,
            "reader": 0.6
          },
          "weights": [
            0.07008036226034164,
            0.585159182548523,
            -0.3140512704849243,
            -0.5507701635360718,
            -0.32963138818740845,
            0.5462185740470886,
            -0.5212076902389526,
            0.2537177503108978,
            -0.07438047975301743,
            -0.31671592593193054,
            0.6793646812438965,
            0.47162988781929016,
            -0.14921113848686218,
            0.0628259927034378,
            -0.27428579330444336,
            3.065170732876491e-30,
            3.065170732876491e-30,
            -0.07691817730665207,
            -0.0973782166838646,
            -0.07113692164421082,
            -0.41059422492980957,
            0.2537177503108978,
            0.0731610655784607,
            -0.276760995388031,
            0.08357995003461838,
            0.19491823017597198,
            -0.02994569018483162,
            0.2778868079185486,
            0.15863415598869324,
            -0.13134850561618805,
            0.3999929130077362,
            1.1553521156311035,
            1.3940811157226562,
            1.7009767293930054,
            0.037225861102342606
          ]
        },
        {
          "mixing": {
            "advertiser": 0.2,
            "civic_diversity": 0.0,
            "journalist": 0.2,
            "publisher": 0.2,
            "reader": 0.4
          },
          "weights": [
            0.6292896866798401,
            0.6837197542190552,
            -0.5095968842506409,
            0.15784692764282227,
            -0.14489085972309113,
            0.3830738067626953,
            -0.3945986330509186,
            0.16467946767807007,
            -0.5134664177894592,
            -0.14520913362503052,
            0.08159737288951874,
            0.3535188138484955,
            -0.5592345595359802,
            -0.27520695328712463,
            -0.18191230297088623,
            3.065170732876491e-30,
            3.065170732876491e-30,
            -0.008991009555757046,
            0.18761040270328522,
            -0.06083959713578224,
            -0.12869077920913696,
            0.16467946767807007,
            0.20678335428237915,
            -0.2453887015581131,
            -0.3561237156391144,
            -0.12851308286190033,
            0.20967000722885132,
            -0.03793737664818764,
            0.06921577453613281,
            -0.11113300919532776,
            0.15455086529254913,
            0.7062109708786011,
            0.9955264925956726,
            1.2711155414581299,
            -0.20319929718971252
          ]
        },
        {
          "mixing": {
            "advertiser": 0.2,
            "civic_diversity": 0.0,
            "journalist": 0.2,
            "publisher": 0.4,
            "reader": 0.2
          },
          "weights": [
            0.8428471684455872,
            0.8688759803771973,
            0.08859548717737198,
            -0.20021389424800873,
            -0.030740298330783844,
            0.32837972044944763,
            -0.227340430021286,
            -0.12396907061338425,
            -0.4726853668689728,
            -0.4853583872318268,
            -0.4013303220272064,
            -0.19094116985797882,
            -0.5202178359031677,
            0.05084342509508133,
            -0.1262935847043991,
            3.065170732876491e-30,
            3.065170732876491e-30,
            0.25802430510520935,
            -0.08194709569215775,
            0.05177118256688118,
            -0.2783397138118744,
            -0.12396907061338425,
            0.11753125488758087,
            -0.12540382146835327,
            -0.07732868939638138,
            0.13123421370983124,
            0.02532166801393032,
            0.5396088361740112,
            -0.06571704149246216,
            0.12098049372434616,
            -0.21204626560211182,
            0.32021623849868774,
            0.42352575063705444,
            0.9070201516151428,
            0.027105003595352173
          ]
        },
        {
          "mixing": {
            "advertiser": 0.2,
            "civic_diversity": 0.0,
            "journalist": 0.2,
            "publisher": 0.6,
            "reader": 0.0
          },
          "weights": [
            1.1505244970321655,
            0.588941216468811,
            0.26836949586868286,
            0.16431616246700287,
            -0.060861751437187195,
            0.4259500205516815,
            -0.5532978773117065,
            -0.2880752384662628,
            -0.2968755066394806,
            -0.08719490468502045,
            -0.6155616641044617,
            -0.7838791012763977,
            -0.03215854614973068,
            -0.4108230173587799,
            -0.16901962459087372,
            3.065170732876491e-30,
            3.065170732876491e-30,
            -0.13309337198734283,
            0.20785784721374512,
            0.12112307548522949,
            -0.5422214269638062,
            -0.2880752384662628,
            0.1850157529115677,
            -0.0870157778263092,
            -0.282144695520401,
            0.49370548129081726,
            -0.4080282747745514,
            0.2904044985771179,
            0.3958302438259125,
            0.24700477719306946,
            0.4285792112350464,
            0.1606607288122177,
            0.26729246973991394,
            0.09742534905672073,
            0.1687334179878235
          ]
        },
        {
          "mixing": {
            "advertiser": 0.2,
            "civic_diversity": 0.0,
            "journalist": 0.4,
            "publisher": 0.0,
            "reader": 0.4
          },
          "weights": [
            -0.16888374090194702,
            0.2996062934398651,
            -0.15323984622955322,
            0.20044904947280884,
            -0.3239469528198242,
            0.3184038996696472,
            -0.5740928649902344,
            -0.024429477751255035,
            -0.37604671716690063,
            0.06544642150402069,
            0.7395642399787903,
            0.4425141215324402,
            -0.13174916803836823,
            0.08203130215406418,
            0.053152576088905334,
            3.065170732876491e-30,
            3.065170732876491e-30,
            0.5113004446029663,
            -0.22954581677913666,
            0.33435776829719543,
            -0.5060570240020752,
            -0.024429477751255035,
            0.11868806183338165,
            0.07028287649154663,
            0.2958192825317383,
            0.09254888445138931,
            -0.4734851121902466,
            -0.277637779712677,
            0.6411905884742737,
            -0.304410457611084,
            0.02725338190793991,
            1.4054358005523682,
            1.4103951454162598,
            1.4108898639678955,
            0.17135688662528992
          ]
        },
        {
          "mixing": {
            "advertiser": 0.2,
            "civic_diversity": 0.0,
            "journalist": 0.4,
            "publisher": 0.2,
            "reader": 0.2
          },
          "weights": [
            0.5416830778121948,
            0.7163065671920776,
            -0.010624104179441929,
            -0.056803032755851746,
            -0.1092141792178154,
            0.42235055565834045,
            -0.6348377466201782,
            -0.04739019647240639,
            -0.22319678962230682,
            0.036687515676021576,
            -0.07899611443281174,
            -0.27600526809692383,
            -0.441389262676239,
            0.10755220055580139,
            -0.1703360676765442,
            3.065170732876491e-30,
            3.065170732876491e-30,
            0.45954519510269165,
            -0.14394834637641907,
            0.465383380651474,
            -0.7224462628364563,
            -0.04739019647240639,
            -0.49002745747566223,
            -0.32294806838035583,
            0.45037218928337097,
            0.1626291424036026,
            0.09886135160923004,
            -0.1354711502790451,
            0.6017680764198303,
            -0.4722481966018677,
            0.2818984389305115,
            0.33938607573509216,
            0.9656949043273926,
            0.9092003107070923,
            0.0166326817125082
          ]
        },
        {
          "mixing": {
            "advertiser": 0.2,
            "civic_diversity": 0.0,
            "journalist": 0.4,
            "publisher": 0.4,
            "reader": 0.0
          },
          "weights": [
            0.7394530773162842,
            0.7062163352966309,
            0.16383060812950134,
            -0.008994562551379204,
            0.0765472874045372,
            0.19632026553153992,
            -0.5814252495765686,
            -0.24981334805488586,
            -0.133353590965271,
            -0.0907716453075409,
            -0.7810938954353333,
            -0.44369420409202576,
            0.34094518423080444,
            -0.03053232468664646,
            -0.3514363765716553,
            3.065170732876491e-30,
            3.065170732876491e-30,
            0.6494730114936829,
            -0.21576696634292603,
            0.1468711495399475,
            -0.7276315093040466,
            -0.24981334805488586,
            -0.0916483998298645,
            -0.2963552176952362,
            0.36689522862434387,
            -0.04152936860918999,
            -0.19712918996810913,
            0.04310624673962593,
            0.3692076504230499,
            0.38329368829727173,
            0.14061348140239716,
            0.5205467939376831,
            0.4084172248840332,
            0.5388674139976501,
            0.09680695086717606
          ]
        },
        {
          "mixing": {
            "advertiser": 0.2,
            "civic_diversity": 0.0,
            "journalist": 0.6,
            "publisher": 0.0,
            "reader": 0.2
          },
          "weights": [
            0.07871843129396439,
            0.34185242652893066,
            0.20591077208518982,
            0.1860394924879074,
            -0.2379971146583557,
            0.5055579543113708,
            -0.4794689416885376,
            0.14297433197498322,
            0.19943872094154358,
            -0.05047476291656494,
            -0.31786873936653137,
            0.012646947987377644,
            -0.25748875737190247,
            0.2178981453180313,
            -0.4335708022117615,
            3.065170732876491e-30,
            3.065170732876491e-30,
            0.9210453629493713,
            -0.1909182369709015,
            0.5731795430183411,
            -0.5387398600578308,
            0.14297433197498322,
            -0.056529466062784195,
            -0.22200343012809753,
            0.5829522013664246,
            -0.09746205806732178,
            -0.955337405204773,
            -0.3133159577846527,
            0.6930350661277771,
            -0.5166343450546265,
            0.17543558776378632,
            1.4582502841949463,
            1.2914482355117798,
            0.9356688261032104,
            0.20895494520664215
          ]
        },
        {
          "mixing": {
            "advertiser": 0.2,
            "civic_diversity": 0.0,
            "journalist": 0.6,
            "publisher": 0.2,
            "reader": 0.0
          },
          "weights": [
            0.6103560924530029,
            0.47443652153015137,
            0.0702437311410904,
            0.6156936287879944,
            0.1486806869506836,
            0.2777564525604248,
            -0.9431531429290771,
            -0.1304822713136673,
            -0.007405912969261408,
            0.047273073345422745,
            -0.6904391646385193,
            -0.5598922371864319,
            -0.24012547731399536,
            0.2932564914226532,
            -0.31826284527778625,
            3.065170732876491e-30,
            3.065170732876491e-30,
            0.7098810076713562,
            -0.07612551748752594,
            0.5950427651405334,
            -0.38961130380630493,
            -0.1304822713136673,
            -0.3276554346084595,
            -0.679554283618927,
            0.23707380890846252,
            -0.3348720073699951,
            -0.527776837348938,
            -0.16202156245708466,
            1.2928873300552368,
            -0.07502363622188568,
            0.1195404902100563,
            1.0461556911468506,
            1.0514044761657715,
            0.9822795391082764,
            0.19466552138328552
          ]
        },
        {
          "mixing": {
            "advertiser": 0.2,
            "civic_diversity": 0.0,
            "journalist": 0.8,
            "publisher": 0.0,
            "reader": 0.0
          },
          "weights": [
            0.257384717464447,
            0.17335177958011627,
            -0.04076419770717621,
            0.47655439376831055,
            0.1841656118631363,
            0.46744439005851746,
            -0.700991690158844,
            -0.0634862408041954,
            0.26391178369522095,
            0.24587611854076385,
            -0.6352370381355286,
            -0.7923700213432312,
            -0.19035713374614716,
            0.5131206512451172,
            -0.09291009604930878,
            3.065170732876491e-30,
            3.065170732876491e-30,
            1.0686719417572021,
            -0.10198716819286346,
            0.7939808368682861,
            -1.0316325426101685,
            -0.0634862408041954,
            0.16748367249965668,
            -0.6778684258460999,
            0.8087254166603088,
            0.08041509240865707,
            -0.6810187101364136,
            -0.24034343659877777,
            0.5564452409744263,
            -0.38678187131881714,
            0.03202662244439125,
            0.9502301216125488,
            1.2568049430847168,
            1.1959011554718018,
